{"learner":{"attributes":{"best_iteration":"66","best_score":"0.01874119995528842"},"feature_names":["elo_diff","points_diff","gd_diff","rel_form_gf","rel_form_ga","rel_form_winrate","rel_streak_win","rel_streak_lose","elo_change_diff","h2h","home_advantage"],"feature_types":["float","int","int","float","float","float","int","int","float","float","int"],"gradient_booster":{"model":{"gbtree_model_param":{"num_parallel_tree":"1","num_trees":"261"},"iteration_indptr":[0,3,6,9,12,15,18,21,24,27,30,33,36,39,42,45,48,51,54,57,60,63,66,69,72,75,78,81,84,87,90,93,96,99,102,105,108,111,114,117,120,123,126,129,132,135,138,141,144,147,150,153,156,159,162,165,168,171,174,177,180,183,186,189,192,195,198,201,204,207,210,213,216,219,222,225,228,231,234,237,240,243,246,249,252,255,258,261],"tree_info":[0,1,2,0,1,2,0,1,2,0,1,2,0,1,2,0,1,2,0,1,2,0,1,2,0,1,2,0,1,2,0,1,2,0,1,2,0,1,2,0,1,2,0,1,2,0,1,2,0,1,2,0,1,2,0,1,2,0,1,2,0,1,2,0,1,2,0,1,2,0,1,2,0,1,2,0,1,2,0,1,2,0,1,2,0,1,2,0,1,2,0,1,2,0,1,2,0,1,2,0,1,2,0,1,2,0,1,2,0,1,2,0,1,2,0,1,2,0,1,2,0,1,2,0,1,2,0,1,2,0,1,2,0,1,2,0,1,2,0,1,2,0,1,2,0,1,2,0,1,2,0,1,2,0,1,2,0,1,2,0,1,2,0,1,2,0,1,2,0,1,2,0,1,2,0,1,2,0,1,2,0,1,2,0,1,2,0,1,2,0,1,2,0,1,2,0,1,2,0,1,2,0,1,2,0,1,2,0,1,2,0,1,2,0,1,2,0,1,2,0,1,2,0,1,2,0,1,2,0,1,2,0,1,2,0,1,2,0,1,2,0,1,2,0,1,2,0,1,2,0,1,2,0,1,2,0,1,2,0,1,2],"trees":[{"base_weights":[-2.7995923E-1,1.4646814E0,-7.4002063E-1,1.4925203E0,9.847878E-1,-3.1802166E-2,-7.47124E-1,1.4976083E-1,1.1707317E0,1.4489164E0,-6.020762E-1,1.4439835E-1,-6.077796E-1,-5.4644156E-1,-7.4905E-2,1.4579439E-1,-6.31579E-2,1.4763904E0,-1.2000003E-2,7.2413795E-2,-7.2490714E-2,6.7346936E-1,-7.0710576E-1,1.2222222E-1,-7.291942E-1,1.4856535E-1,4.285714E-2,1.1351352E-1,-4.2857148E-2,-7.378816E-2,1.0344825E-2,-7.408907E-2,-1.2000003E-2],"categories":[],"categories_nodes":[],"categories_segments":[],"categories_sizes":[],"default_left":[0,0,0,0,0,0,0,0,0,0,0,0,0,0,0,0,0,0,0,0,0,0,0,0,0,0,0,0,0,0,0,0,0],"id":0,"left_children":[1,3,5,7,9,11,13,-1,15,17,19,-1,21,23,-1,-1,-1,25,-1,-1,-1,27,29,-1,31,-1,-1,-1,-1,-1,-1,-1,-1],"loss_changes":[9.529064E3,3.1628906E1,4.7236816E1,2.0776367E0,1.0308342E2,8.106277E1,3.1855469E0,0E0,2.2144272E1,4.818039E0,5.7558355E0,0E0,9.200701E0,3.0664131E1,0E0,0E0,0E0,3.9108276E-1,0E0,0E0,0E0,3.2564814E0,1.6756096E0,0E0,5.1042175E-1,0E0,0E0,0E0,0E0,0E0,0E0,0E0,0E0],"parents":[2147483647,0,0,1,1,2,2,3,3,4,4,5,5,6,6,8,8,9,9,10,10,12,12,13,13,17,17,21,21,22,22,24,24],"right_children":[2,4,6,8,10,12,14,-1,16,18,20,-1,22,24,-1,-1,-1,26,-1,-1,-1,28,30,-1,32,-1,-1,-1,-1,-1,-1,-1,-1],"split_conditions":[-8.69299E0,-1.1058051E1,-7.1877217E0,5.17E2,4.4E1,-2.57E2,-6.0621095E0,1.4976083E-1,-1.3621764E1,6.666667E-1,-5.5E-1,1.4439835E-1,-1.6666667E-1,-2.76E2,-7.4905E-2,1.4579439E-1,-6.31579E-2,4.23E2,-1.2000003E-2,7.2413795E-2,-7.2490714E-2,-5.8E1,4.5E-1,1.2222222E-1,4.5E-1,1.4856535E-1,4.285714E-2,1.1351352E-1,-4.2857148E-2,-7.378816E-2,1.0344825E-2,-7.408907E-2,-1.2000003E-2],"split_indices":[8,8,8,2,2,2,8,0,8,5,3,0,5,2,0,0,0,1,0,0,0,1,4,0,4,0,0,0,0,0,0,0,0],"split_type":[0,0,0,0,0,0,0,0,0,0,0,0,0,0,0,0,0,0,0,0,0,0,0,0,0,0,0,0,0,0,0,0,0],"sum_hessian":[1.1869777E4,2.4764443E3,9.393333E3,2.3386665E3,1.3777777E2,9.333333E1,9.299999E3,2.2986665E3,3.9999996E1,1.0666666E2,3.1111109E1,2.5777777E1,6.755555E1,9.111111E1,9.208889E3,3.4666664E1,5.333333E0,1.04888885E2,1.7777777E0,2.222222E0,2.8888887E1,4.444444E0,6.3111107E1,7.9999995E0,8.311111E1,1.0355555E2,1.3333333E0,3.111111E0,1.3333333E0,6.0888885E1,2.222222E0,8.133333E1,1.7777777E0],"tree_param":{"num_deleted":"0","num_feature":"11","num_nodes":"33","size_leaf_vector":"1"}},{"base_weights":[-1.22303076E-1,5.0813365E-1,-7.3207194E-1,-7.143696E-1,1.3920846E0,4.9049428E-1,-7.498746E-2,-7.496875E-2,6.092943E-1,1.4703237E0,-7.4380174E-2,1.4693879E-1,-7.3109254E-2,-7.2103016E-2,1.462185E-1,-7.328245E-2,1.4995375E-1],"categories":[],"categories_nodes":[],"categories_segments":[],"categories_sizes":[],"default_left":[0,0,0,0,0,0,0,0,0,0,0,0,0,0,0,0,0],"id":1,"left_children":[1,3,5,7,9,11,-1,-1,13,15,-1,-1,-1,-1,-1,-1,-1],"loss_changes":[4.5873223E3,6.341307E3,1.3239185E2,1.1558923E2,5.7017725E2,1.0590635E2,0E0,0E0,7.430037E1,2.1255713E2,0E0,0E0,0E0,0E0,0E0,0E0,0E0],"parents":[2147483647,0,0,1,1,2,2,3,3,4,4,5,5,8,8,9,9],"right_children":[2,4,6,8,10,12,-1,-1,14,16,-1,-1,-1,-1,-1,-1,-1],"split_conditions":[9.927664E0,-8.69299E0,-1.8910641E2,1.5827814E2,1.6545262E2,1.3670315E1,-7.498746E-2,-7.496875E-2,-2.765526E1,-2.1492542E2,-7.4380174E-2,1.4693879E-1,-7.3109254E-2,-7.2103016E-2,1.462185E-1,-7.328245E-2,1.4995375E-1],"split_indices":[8,8,0,0,0,8,0,0,8,0,0,0,0,0,0,0,0],"split_type":[0,0,0,0,0,0,0,0,0,0,0,0,0,0,0,0,0],"sum_hessian":[1.193111E4,5.8662217E3,6.0648887E3,2.4617776E3,3.4044443E3,8.6666664E1,5.9782217E3,2.3982222E3,6.3555553E1,3.2844443E3,1.1999999E2,4.7999996E1,3.8666664E1,2.4888887E1,3.8666664E1,4.2666664E1,3.2417776E3],"tree_param":{"num_deleted":"0","num_feature":"11","num_nodes":"17","size_leaf_vector":"1"}},{"base_weights":[4.0437964E-1,-7.243831E-1,1.4686916E0,-7.4986815E-2,1.0348994E0,3.425117E-1,1.4997481E-1,-7.0700645E-2,1.477387E-1,-7.412224E-2,1.4814815E-1],"categories":[],"categories_nodes":[],"categories_segments":[],"categories_sizes":[],"default_left":[0,0,0,0,0,0,0,0,0,0,0],"id":2,"left_children":[1,3,5,-1,7,9,-1,-1,-1,-1,-1],"loss_changes":[1.4277039E4,2.5937134E2,2.1341309E2,0E0,6.484729E1,2.0531287E2,0E0,0E0,0E0,0E0,0E0],"parents":[2147483647,0,0,1,1,2,2,4,4,5,5],"right_children":[2,4,6,-1,8,10,-1,-1,-1,-1,-1],"split_conditions":[8.857239E0,2.0906366E2,-1.6414651E2,-7.4986815E-2,-1.0227523E1,1.4665834E1,1.4997481E-1,-7.0700645E-2,1.477387E-1,-7.412224E-2,1.4814815E-1],"split_indices":[8,0,0,0,8,8,0,0,0,0,0],"split_type":[0,0,0,0,0,0,0,0,0,0,0],"sum_hessian":[1.1882222E4,5.7666665E3,6.115555E3,5.6848887E3,8.177777E1,1.6444443E2,5.951111E3,1.6444443E1,6.533333E1,8.444444E1,7.999999E1],"tree_param":{"num_deleted":"0","num_feature":"11","num_nodes":"11","size_leaf_vector":"1"}},{"base_weights":[-2.657504E-1,1.2722762E0,-7.1215034E-1,1.2984227E-1,1.8641935E-1,3.2739025E-1,-7.2195254E-2,1.2565553E-1,-7.060029E-2,1.3008223E-1,-7.052567E-2],"categories":[],"categories_nodes":[],"categories_segments":[],"categories_sizes":[],"default_left":[0,0,0,0,0,0,0,0,0,0,0],"id":3,"left_children":[1,3,5,-1,7,9,-1,-1,-1,-1,-1],"loss_changes":[8.0000234E3,7.4177246E1,9.225586E1,0E0,6.086183E1,8.6405525E1,0E0,0E0,0E0,0E0,0E0],"parents":[2147483647,0,0,1,1,2,2,4,4,5,5],"right_children":[2,4,6,-1,8,10,-1,-1,-1,-1,-1],"split_conditions":[-8.69299E0,1.5827814E2,-2.1492542E2,1.2984227E-1,-2.765526E1,-3.5513453E0,-7.2195254E-2,1.2565553E-1,-7.060029E-2,1.3008223E-1,-7.052567E-2],"split_indices":[8,0,0,0,8,8,0,0,0,0,0],"split_type":[0,0,0,0,0,0,0,0,0,0,0],"sum_hessian":[1.1649756E4,2.620215E3,9.029541E3,2.5584153E3,6.1799866E1,8.404488E1,8.945496E3,2.791634E1,3.3883526E1,4.3129166E1,4.0915718E1],"tree_param":{"num_deleted":"0","num_feature":"11","num_nodes":"11","size_leaf_vector":"1"}},{"base_weights":[-1.1593053E-1,4.5416415E-1,-7.039786E-1,-6.839147E-1,1.210368E0,4.1322765E-1,-7.218643E-2,-7.217474E-2,5.5010533E-1,1.2757055E0,-7.1616E-2,1.2780488E-1,-7.048556E-2,-6.960337E-2,1.279727E-1,-7.088109E-2,1.2982877E-1],"categories":[],"categories_nodes":[],"categories_segments":[],"categories_sizes":[],"default_left":[0,0,0,0,0,0,0,0,0,0,0,0,0,0,0,0,0],"id":4,"left_children":[1,3,5,7,9,11,-1,-1,13,15,-1,-1,-1,-1,-1,-1,-1],"loss_changes":[3.9370671E3,5.132797E3,1.1581152E2,1.11563354E2,4.5191895E2,8.959375E1,0E0,0E0,6.580556E1,1.5623877E2,0E0,0E0,0E0,0E0,0E0,0E0,0E0],"parents":[2147483647,0,0,1,1,2,2,3,3,4,4,5,5,8,8,9,9],"right_children":[2,4,6,8,10,12,-1,-1,14,16,-1,-1,-1,-1,-1,-1,-1],"split_conditions":[9.927664E0,-8.69299E0,-1.8910641E2,1.5827814E2,1.6545262E2,1.4665834E1,-7.218643E-2,-7.217474E-2,-2.765526E1,-2.1492542E2,-7.1616E-2,1.2780488E-1,-7.048556E-2,-6.960337E-2,1.279727E-1,-7.088109E-2,1.2982877E-1],"split_indices":[8,8,0,0,0,8,0,0,8,0,0,0,0,0,0,0,0],"split_type":[0,0,0,0,0,0,0,0,0,0,0,0,0,0,0,0,0],"sum_hessian":[1.1741965E4,5.962109E3,5.7798555E3,2.3801316E3,3.5819775E3,9.072515E1,5.6891304E3,2.3097346E3,7.0396935E1,3.4648076E3,1.1716985E2,5.107574E1,3.9649414E1,2.6013638E1,4.4383297E1,3.8641117E1,3.4261665E3],"tree_param":{"num_deleted":"0","num_feature":"11","num_nodes":"17","size_leaf_vector":"1"}},{"base_weights":[3.6707324E-1,-6.977821E-1,1.2731987E0,-7.2191015E-2,9.535448E-1,3.238191E-1,1.2983774E-1,-6.698155E-2,1.2812732E-1,-7.137697E-2,1.2856978E-1],"categories":[],"categories_nodes":[],"categories_segments":[],"categories_sizes":[],"default_left":[0,0,0,0,0,0,0,0,0,0,0],"id":5,"left_children":[1,3,5,-1,7,9,-1,-1,-1,-1,-1],"loss_changes":[1.1658273E4,2.2201416E2,1.5561621E2,0E0,4.364692E1,1.7056209E2,0E0,0E0,0E0,0E0,0E0],"parents":[2147483647,0,0,1,1,2,2,4,4,5,5],"right_children":[2,4,6,-1,8,10,-1,-1,-1,-1,-1],"split_conditions":[8.857239E0,2.0906366E2,-1.6414651E2,-7.2191015E-2,-1.0227523E1,1.4665834E1,1.2983774E-1,-6.698155E-2,1.2812732E-1,-7.137697E-2,1.2856978E-1],"split_indices":[8,0,0,0,8,8,0,0,0,0,0],"split_type":[0,0,0,0,0,0,0,0,0,0,0],"sum_hessian":[1.2080536E4,5.55393E3,6.5266064E3,5.474504E3,7.942665E1,1.6897847E2,6.357628E3,1.316613E1,6.626052E1,8.141412E1,8.756435E1],"tree_param":{"num_deleted":"0","num_feature":"11","num_nodes":"11","size_leaf_vector":"1"}},{"base_weights":[-2.5044146E-1,1.1267604E0,-6.873615E-1,1.15233235E-1,1.045837E-1,2.9764134E-1,-6.973735E-2,1.1201429E-1,-6.841781E-2,1.1527546E-1,-6.814398E-2],"categories":[],"categories_nodes":[],"categories_segments":[],"categories_sizes":[],"default_left":[0,0,0,0,0,0,0,0,0,0,0],"id":6,"left_children":[1,3,5,-1,7,9,-1,-1,-1,-1,-1],"loss_changes":[6.810759E3,7.113696E1,8.494385E1,0E0,5.494393E1,7.375643E1,0E0,0E0,0E0,0E0,0E0],"parents":[2147483647,0,0,1,1,2,2,4,4,5,5],"right_children":[2,4,6,-1,8,10,-1,-1,-1,-1,-1],"split_conditions":[-8.69299E0,1.5827814E2,-2.1492542E2,1.15233235E-1,-2.765526E1,-3.5513453E0,-6.973735E-2,1.1201429E-1,-6.841781E-2,1.1527546E-1,-6.814398E-2],"split_indices":[8,0,0,0,8,8,0,0,0,0,0],"split_type":[0,0,0,0,0,0,0,0,0,0,0],"sum_hessian":[1.1316397E4,2.725104E3,8.591294E3,2.6584695E3,6.663449E1,8.615804E1,8.505136E3,2.8945715E1,3.7688778E1,4.5895924E1,4.0262123E1],"tree_param":{"num_deleted":"0","num_feature":"11","num_nodes":"11","size_leaf_vector":"1"}},{"base_weights":[-1.0399223E-1,-7.282182E-2,-2.1734324E-1,-3.9429024E-2,-1.0231414E-1,-1.9360553E-1,-4.1867352E-1,-2.5121523E-3,-6.17599E-2,-8.223603E-2,-1.5407357E-1,-2.1119116E-1,-9.9229656E-2,1.16361335E-1,-4.3301412E-1,-6.714894E-2,2.1350656E-2,-2.2162232E-1,-5.601319E-2,-7.527136E-2,-1.9948395E-1,-6.571689E-2,-1.8305811E-1,-1.955847E-1,-3.1810966E-1,4.123393E-1,-1.1972453E-1,-2.8872395E-1,4.3274462E-1,6.428613E-2,-4.4022092E-1,-9.836439E-3,1.6521344E-2,1.1702121E-2,1.7514118E-4,-2.4198143E-2,4.827085E-2,-4.719845E-3,-1.4589722E-2,-7.1918736E-3,-2.4699891E-2,-1.2964833E-2,-3.215901E-2,-1.4376191E-3,-1.6233586E-2,-2.1296775E-2,-1.3540524E-2,-1.7838934E-2,-3.3249952E-2,-3.848914E-2,-2.3427127E-2,8.470442E-2,-2.8113876E-2,9.371142E-3,-1.6580455E-2,8.2216604E-5,-4.3258928E-2,-2.1217284E-5,6.009568E-2,-4.317582E-2,4.9420476E-2,-5.4544795E-2,-4.102954E-2],"categories":[],"categories_nodes":[],"categories_segments":[],"categories_sizes":[],"default_left":[0,0,0,0,0,0,0,0,0,0,0,0,0,0,0,0,0,0,0,0,0,0,0,0,0,0,0,0,0,0,0,0,0,0,0,0,0,0,0,0,0,0,0,0,0,0,0,0,0,0,0,0,0,0,0,0,0,0,0,0,0,0,0],"id":7,"left_children":[1,3,5,7,9,11,13,15,17,19,21,23,25,27,29,31,33,35,37,39,41,43,45,47,49,51,53,55,57,59,61,-1,-1,-1,-1,-1,-1,-1,-1,-1,-1,-1,-1,-1,-1,-1,-1,-1,-1,-1,-1,-1,-1,-1,-1,-1,-1,-1,-1,-1,-1,-1,-1],"loss_changes":[4.0617928E1,8.880741E0,1.1770866E1,3.4891858E0,4.96521E0,3.663887E0,2.0506477E0,2.4636807E0,2.4104252E0,2.804966E0,3.4135895E0,3.0591507E0,3.7254214E0,1.0981172E0,9.3899155E-1,3.1400943E0,2.1874003E0,1.4242454E0,2.011207E0,1.8599033E0,1.6043024E0,1.6443809E0,1.4059219E0,3.789856E0,1.234932E0,4.377347E0,3.3386912E0,1.6404873E-1,3.3977252E-1,1.1735529E0,5.6534195E-1,0E0,0E0,0E0,0E0,0E0,0E0,0E0,0E0,0E0,0E0,0E0,0E0,0E0,0E0,0E0,0E0,0E0,0E0,0E0,0E0,0E0,0E0,0E0,0E0,0E0,0E0,0E0,0E0,0E0,0E0,0E0,0E0],"parents":[2147483647,0,0,1,1,2,2,3,3,4,4,5,5,6,6,7,7,8,8,9,9,10,10,11,11,12,12,13,13,14,14,15,15,16,16,17,17,18,18,19,19,20,20,21,21,22,22,23,23,24,24,25,25,26,26,27,27,28,28,29,29,30,30],"right_children":[2,4,6,8,10,12,14,16,18,20,22,24,26,28,30,32,34,36,38,40,42,44,46,48,50,52,54,56,58,60,62,-1,-1,-1,-1,-1,-1,-1,-1,-1,-1,-1,-1,-1,-1,-1,-1,-1,-1,-1,-1,-1,-1,-1,-1,-1,-1,-1,-1,-1,-1,-1,-1],"split_conditions":[5.4775238E1,-4.4E1,1.6545262E2,1.3333334E-1,3E0,7.71E2,-1.82E2,-1.2191885E2,-1.6414651E2,1.8E2,-2.3E1,2.76E2,5.7067196E1,-7.48E2,-2.7E0,-1.28E2,-9.398471E1,6.666667E-1,8E-1,1.1333333E0,4.11E2,6.666667E-1,8.1E1,1.2776513E2,1.19094826E2,-3.5E-1,5E-2,4.6666667E-1,-1.3333334E0,1.42E2,0E0,-9.836439E-3,1.6521344E-2,1.1702121E-2,1.7514118E-4,-2.4198143E-2,4.827085E-2,-4.719845E-3,-1.4589722E-2,-7.1918736E-3,-2.4699891E-2,-1.2964833E-2,-3.215901E-2,-1.4376191E-3,-1.6233586E-2,-2.1296775E-2,-1.3540524E-2,-1.7838934E-2,-3.3249952E-2,-3.848914E-2,-2.3427127E-2,8.470442E-2,-2.8113876E-2,9.371142E-3,-1.6580455E-2,8.2216604E-5,-4.3258928E-2,-2.1217284E-5,6.009568E-2,-4.317582E-2,4.9420476E-2,-5.4544795E-2,-4.102954E-2],"split_indices":[0,1,0,5,6,1,1,0,0,2,2,2,0,1,4,1,0,5,5,4,1,9,1,0,0,4,5,5,4,2,9,0,0,0,0,0,0,0,0,0,0,0,0,0,0,0,0,0,0,0,0,0,0,0,0,0,0,0,0,0,0,0,0],"split_type":[0,0,0,0,0,0,0,0,0,0,0,0,0,0,0,0,0,0,0,0,0,0,0,0,0,0,0,0,0,0,0,0,0,0,0,0,0,0,0,0,0,0,0,0,0,0,0,0,0,0,0,0,0,0,0,0,0,0,0,0,0,0,0],"sum_hessian":[1.1499562E4,9.020622E3,2.4789397E3,4.2316533E3,4.7889683E3,2.219243E3,2.596967E2,1.5953579E3,2.6362954E3,3.452349E3,1.3366193E3,1.8696263E3,3.496167E2,6.593294E0,2.5310338E2,4.2967917E2,1.1656787E3,9.017712E1,2.5461182E3,3.2603237E3,1.9202531E2,3.3096646E2,1.0056528E3,1.6339537E3,2.3567256E2,1.2730622E1,3.3688608E2,2.9296737E0,3.6636207E0,3.5024004E0,2.4960098E2,3.7930078E2,5.03784E1,1.9735439E2,9.683244E2,8.8281715E1,1.8953984E0,2.3201145E3,2.2600372E2,3.1992832E3,6.1040573E1,1.2347093E2,6.855439E1,2.1687419E2,1.1409228E2,6.157219E2,3.8993085E2,1.4536859E3,1.8026788E2,1.2918164E2,1.0649091E2,7.6892147E0,5.0414076E0,5.9634434E1,2.7725165E2,1.3025075E0,1.6271663E0,1.3045678E0,2.3590527E0,1.6241552E0,1.8782451E0,5.1452393E1,1.9814859E2],"tree_param":{"num_deleted":"0","num_feature":"11","num_nodes":"63","size_leaf_vector":"1"}},{"base_weights":[3.3786517E-1,-6.709211E-1,1.1311625E0,-6.97337E-2,8.3919746E-1,2.9155532E-1,1.1523246E-1,-6.539472E-2,1.1403793E-1,-6.892869E-2,1.142342E-1],"categories":[],"categories_nodes":[],"categories_segments":[],"categories_sizes":[],"default_left":[0,0,0,0,0,0,0,0,0,0,0],"id":8,"left_children":[1,3,5,-1,7,9,-1,-1,-1,-1,-1],"loss_changes":[9.639835E3,2.1212354E2,1.194707E2,0E0,4.194815E1,1.402423E2,0E0,0E0,0E0,0E0,0E0],"parents":[2147483647,0,0,1,1,2,2,4,4,5,5],"right_children":[2,4,6,-1,8,10,-1,-1,-1,-1,-1],"split_conditions":[8.857239E0,2.0906366E2,-1.6414651E2,-6.97337E-2,-1.0227523E1,1.4665834E1,1.1523246E-1,-6.539472E-2,1.1403793E-1,-6.892869E-2,1.142342E-1],"split_indices":[8,0,0,0,8,8,0,0,0,0,0],"split_type":[0,0,0,0,0,0,0,0,0,0,0],"sum_hessian":[1.2043819E4,5.3018916E3,6.7419277E3,5.211271E3,9.062034E1,1.6611441E2,6.5758135E3,1.5014231E1,7.56061E1,7.724787E1,8.886655E1],"tree_param":{"num_deleted":"0","num_feature":"11","num_nodes":"11","size_leaf_vector":"1"}},{"base_weights":[-2.4142674E-1,1.0375123E0,-6.684942E-1,1.0522404E0,6.394989E-1,-3.38108E-2,-6.7543525E-1,1.05769575E-1,8.8410836E-1,1.0165883E0,-6.283943E-1,1.030159E-1,-5.782061E-1,-4.9174747E-1,-6.773335E-1,1.043092E-1,-5.375123E-1,2.8638744E-1,1.0444764E-1,-6.642662E-2,-7.3007E-4,4.9637473E-1,-6.489592E-1,8.954943E-2,-6.711221E-1,-3.9012903E-1,-6.775564E-2,-6.144634E-2,-3.5175618E-3,7.044738E-2,-3.960479E-2,7.202727E-2,-9.6507306E-4,-6.8015926E-2,9.161911E-3,-6.8259984E-2,-9.830228E-3,3.761514E-2,-5.8717217E-2],"categories":[],"categories_nodes":[],"categories_segments":[],"categories_sizes":[],"default_left":[0,0,0,0,0,0,0,0,0,0,0,0,0,0,0,0,0,0,0,0,0,0,0,0,0,0,0,0,0,0,0,0,0,0,0,0,0,0,0],"id":9,"left_children":[1,3,5,7,9,11,13,-1,15,17,19,-1,21,23,25,-1,27,29,-1,-1,-1,31,33,-1,35,37,-1,-1,-1,-1,-1,-1,-1,-1,-1,-1,-1,-1,-1],"loss_changes":[6.0030693E3,1.5455811E1,3.627295E1,1.4970703E0,4.87985E1,5.283108E1,2.508789E0,0E0,2.0772629E1,1.2896729E0,5.233784E-1,0E0,4.9065914E0,2.22515E1,2.5170898E-1,0E0,3.5160065E-1,1.4910153E0,0E0,0E0,0E0,4.9317396E-1,1.3795128E0,0E0,4.4320297E-1,1.5212247E0,0E0,0E0,0E0,0E0,0E0,0E0,0E0,0E0,0E0,0E0,0E0,0E0,0E0],"parents":[2147483647,0,0,1,1,2,2,3,3,4,4,5,5,6,6,8,8,9,9,10,10,12,12,13,13,14,14,16,16,17,17,21,21,22,22,24,24,25,25],"right_children":[2,4,6,8,10,12,14,-1,16,18,20,-1,22,24,26,-1,28,30,-1,-1,-1,32,34,-1,36,38,-1,-1,-1,-1,-1,-1,-1,-1,-1,-1,-1,-1,-1],"split_conditions":[-8.69299E0,-1.0227523E1,-7.1877217E0,3.16E2,4.3E1,-1.88E2,-6.0621095E0,1.05769575E-1,-1.5295558E1,-2E0,4.5E-1,1.030159E-1,-1.6666667E-1,-2.76E2,-3E0,1.043092E-1,5E-2,-5.3E1,1.0444764E-1,-6.642662E-2,-7.3007E-4,-4.4E1,1E0,8.954943E-2,1E0,6.8094045E-2,-6.775564E-2,-6.144634E-2,-3.5175618E-3,7.044738E-2,-3.960479E-2,7.202727E-2,-9.6507306E-4,-6.8015926E-2,9.161911E-3,-6.8259984E-2,-9.830228E-3,3.761514E-2,-5.8717217E-2],"split_indices":[8,8,8,2,2,2,8,0,8,7,4,0,5,2,6,0,4,2,0,0,0,2,7,0,7,8,0,0,0,0,0,0,0,0,0,0,0,0,0],"split_type":[0,0,0,0,0,0,0,0,0,0,0,0,0,0,0,0,0,0,0,0,0,0,0,0,0,0,0,0,0,0,0,0,0,0,0,0,0,0,0],"sum_hessian":[1.0988472E4,2.7504048E3,8.238066E3,2.6506753E3,9.972947E1,8.918236E1,8.1488843E3,2.5622476E3,8.842767E1,7.7020645E1,2.2708824E1,2.9884193E1,5.9298164E1,8.600718E1,8.062877E3,7.9772736E1,8.654935E0,3.2479432E0,7.37727E1,2.1403152E1,1.3056704E0,3.2915356E0,5.600663E1,9.390547E0,7.661664E1,7.6122036E0,8.055265E3,7.311676E0,1.3432593E0,1.9940293E0,1.2539138E0,1.988364E0,1.3031715E0,5.3820786E1,2.1858432E0,7.492372E1,1.692916E0,1.3711118E0,6.2410917E0],"tree_param":{"num_deleted":"0","num_feature":"11","num_nodes":"39","size_leaf_vector":"1"}},{"base_weights":[-9.9769436E-2,4.1428557E-1,-6.6890866E-1,-6.495442E-1,1.0441144E0,3.7088734E-1,-6.862312E-2,-6.8666585E-2,5.3962976E-1,1.095452E0,-6.74751E-2,1.099593E-1,-6.6873424E-2,-6.527845E-2,1.1156366E-1,-6.724423E-2,1.1133893E-1],"categories":[],"categories_nodes":[],"categories_segments":[],"categories_sizes":[],"default_left":[0,0,0,0,0,0,0,0,0,0,0,0,0,0,0,0,0],"id":10,"left_children":[1,3,5,7,9,11,-1,-1,13,15,-1,-1,-1,-1,-1,-1,-1],"loss_changes":[3.3038606E3,3.9763374E3,9.678174E1,9.780328E1,3.296538E2,6.775525E1,0E0,0E0,4.7002983E1,1.155332E2,0E0,0E0,0E0,0E0,0E0,0E0,0E0],"parents":[2147483647,0,0,1,1,2,2,3,3,4,4,5,5,8,8,9,9],"right_children":[2,4,6,8,10,12,-1,-1,14,16,-1,-1,-1,-1,-1,-1,-1],"split_conditions":[9.927664E0,-8.69299E0,-1.8910641E2,1.5827814E2,1.6545262E2,1.4665834E1,-6.862312E-2,-6.8666585E-2,-2.765526E1,-2.1492542E2,-6.74751E-2,1.099593E-1,-6.6873424E-2,-6.527845E-2,1.1156366E-1,-6.724423E-2,1.1133893E-1],"split_indices":[8,8,0,0,0,8,0,0,8,0,0,0,0,0,0,0,0],"split_type":[0,0,0,0,0,0,0,0,0,0,0,0,0,0,0,0,0],"sum_hessian":[1.1290645E4,5.9325493E3,5.3580947E3,2.2061533E3,3.726396E3,8.746602E1,5.270629E3,2.13978E3,6.6373474E1,3.618679E3,1.0771693E2,5.1388447E1,3.6077568E1,2.1575626E1,4.4797844E1,3.598028E1,3.5826987E3],"tree_param":{"num_deleted":"0","num_feature":"11","num_nodes":"17","size_leaf_vector":"1"}},{"base_weights":[3.1779373E-1,-6.576733E-1,1.038437E0,-6.824239E-2,7.762053E-1,2.29634E-1,1.0583129E-1,-6.403032E-2,1.03849195E-1,-6.82548E-2,1.0491426E-1],"categories":[],"categories_nodes":[],"categories_segments":[],"categories_sizes":[],"default_left":[0,0,0,0,0,0,0,0,0,0,0],"id":11,"left_children":[1,3,5,-1,7,9,-1,-1,-1,-1,-1],"loss_changes":[8.382353E3,1.8034058E2,1.0999951E2,0E0,3.2780163E1,1.246287E2,0E0,0E0,0E0,0E0,0E0],"parents":[2147483647,0,0,1,1,2,2,4,4,5,5],"right_children":[2,4,6,-1,8,10,-1,-1,-1,-1,-1],"split_conditions":[8.857239E0,2.0906366E2,-1.6414651E2,-6.824239E-2,-1.0227523E1,1.4665834E1,1.0583129E-1,-6.403032E-2,1.03849195E-1,-6.82548E-2,1.0491426E-1],"split_indices":[8,0,0,0,8,8,0,0,0,0,0],"split_type":[0,0,0,0,0,0,0,0,0,0,0],"sum_hessian":[1.1922331E4,5.0655967E3,6.8567344E3,4.9801562E3,8.5440155E1,1.6476028E2,6.691974E3,1.3123576E1,7.231658E1,7.805056E1,8.670972E1],"tree_param":{"num_deleted":"0","num_feature":"11","num_nodes":"11","size_leaf_vector":"1"}},{"base_weights":[-2.3034309E-1,9.515024E-1,-6.49277E-1,9.699013E-2,1.3205697E-1,2.6211795E-1,-6.593759E-2,9.390029E-2,-6.5969005E-2,9.8280974E-2,-6.4755365E-2],"categories":[],"categories_nodes":[],"categories_segments":[],"categories_sizes":[],"default_left":[0,0,0,0,0,0,0,0,0,0,0],"id":12,"left_children":[1,3,5,-1,7,9,-1,-1,-1,-1,-1],"loss_changes":[5.216006E3,4.1441162E1,7.17583E1,0E0,4.0041893E1,5.698578E1,0E0,0E0,0E0,0E0,0E0],"parents":[2147483647,0,0,1,1,2,2,4,4,5,5],"right_children":[2,4,6,-1,8,10,-1,-1,-1,-1,-1],"split_conditions":[-8.69299E0,1.5827814E2,-2.1492542E2,9.699013E-2,-2.765526E1,-3.5513453E0,-6.593759E-2,9.390029E-2,-6.5969005E-2,9.8280974E-2,-6.4755365E-2],"split_indices":[8,0,0,0,8,8,0,0,0,0,0],"split_type":[0,0,0,0,0,0,0,0,0,0,0],"sum_hessian":[1.0532688E4,2.7561372E3,7.7765513E3,2.6954333E3,6.0703903E1,8.495175E1,7.691599E3,2.9971283E1,3.073262E1,4.7354507E1,3.7597244E1],"tree_param":{"num_deleted":"0","num_feature":"11","num_nodes":"11","size_leaf_vector":"1"}},{"base_weights":[-9.540041E-2,3.8559267E-1,-6.491384E-1,-6.290668E-1,9.5054746E-1,3.3969176E-1,-6.65685E-2,-6.660973E-2,4.7946715E-1,9.960426E-1,-6.550215E-2,9.998615E-2,-6.477775E-2,-6.346384E-2,1.0193451E-1,-6.553997E-2,1.0127419E-1],"categories":[],"categories_nodes":[],"categories_segments":[],"categories_sizes":[],"default_left":[0,0,0,0,0,0,0,0,0,0,0,0,0,0,0,0,0],"id":13,"left_children":[1,3,5,7,9,11,-1,-1,13,15,-1,-1,-1,-1,-1,-1,-1],"loss_changes":[2.9151309E3,3.3582446E3,8.346997E1,8.633899E1,2.755122E2,5.566527E1,0E0,0E0,4.1739395E1,1.01586914E2,0E0,0E0,0E0,0E0,0E0,0E0,0E0],"parents":[2147483647,0,0,1,1,2,2,3,3,4,4,5,5,8,8,9,9],"right_children":[2,4,6,8,10,12,-1,-1,14,16,-1,-1,-1,-1,-1,-1,-1],"split_conditions":[9.927664E0,-8.69299E0,-1.8910641E2,1.5827814E2,1.6545262E2,1.4665834E1,-6.65685E-2,-6.660973E-2,-2.765526E1,-2.1492542E2,-6.550215E-2,9.998615E-2,-6.477775E-2,-6.346384E-2,1.0193451E-1,-6.553997E-2,1.0127419E-1],"split_indices":[8,8,0,0,0,8,0,0,8,0,0,0,0,0,0,0,0],"split_type":[0,0,0,0,0,0,0,0,0,0,0,0,0,0,0,0,0],"sum_hessian":[1.094304E4,5.856348E3,5.0866924E3,2.0945037E3,3.7618445E3,8.3396095E1,5.0032964E3,2.0271847E3,6.731884E1,3.6585557E3,1.0328873E2,4.9973743E1,3.3422356E1,2.19163E1,4.5402546E1,3.6241985E1,3.6223137E3],"tree_param":{"num_deleted":"0","num_feature":"11","num_nodes":"17","size_leaf_vector":"1"}},{"base_weights":[2.99032E-1,-6.392806E-1,9.5182216E-1,-6.62708E-2,7.143938E-1,2.4464703E-1,9.691342E-2,-6.1618317E-2,9.517438E-2,-6.614887E-2,9.618983E-2],"categories":[],"categories_nodes":[],"categories_segments":[],"categories_sizes":[],"default_left":[0,0,0,0,0,0,0,0,0,0,0],"id":14,"left_children":[1,3,5,-1,7,9,-1,-1,-1,-1,-1],"loss_changes":[7.1466104E3,1.5228638E2,8.399756E1,0E0,2.6457657E1,1.0836131E2,0E0,0E0,0E0,0E0,0E0],"parents":[2147483647,0,0,1,1,2,2,4,4,5,5],"right_children":[2,4,6,-1,8,10,-1,-1,-1,-1,-1],"split_conditions":[8.857239E0,2.0906366E2,-1.6414651E2,-6.62708E-2,-1.0227523E1,1.4665834E1,9.691342E-2,-6.1618317E-2,9.517438E-2,-6.614887E-2,9.618983E-2],"split_indices":[8,0,0,0,8,8,0,0,0,0,0],"split_type":[0,0,0,0,0,0,0,0,0,0,0],"sum_hessian":[1.1665537E4,4.78609E3,6.8794473E3,4.7051704E3,8.0919556E1,1.6474942E2,6.7146978E3,1.2007842E1,6.891171E1,7.282459E1,9.1924835E1],"tree_param":{"num_deleted":"0","num_feature":"11","num_nodes":"11","size_leaf_vector":"1"}},{"base_weights":[-2.2107442E-1,8.817817E-1,-6.324812E-1,8.990458E-2,1.0354366E-1,2.4102056E-1,-6.423481E-2,8.716535E-2,-6.4126596E-2,9.093099E-2,-6.292681E-2],"categories":[],"categories_nodes":[],"categories_segments":[],"categories_sizes":[],"default_left":[0,0,0,0,0,0,0,0,0,0,0],"id":15,"left_children":[1,3,5,-1,7,9,-1,-1,-1,-1,-1],"loss_changes":[4.5590015E3,3.6585938E1,6.322461E1,0E0,3.5100395E1,4.853349E1,0E0,0E0,0E0,0E0,0E0],"parents":[2147483647,0,0,1,1,2,2,4,4,5,5],"right_children":[2,4,6,-1,8,10,-1,-1,-1,-1,-1],"split_conditions":[-8.69299E0,1.5827814E2,-2.1492542E2,8.990458E-2,-2.765526E1,-3.5513453E0,-6.423481E-2,8.716535E-2,-6.4126596E-2,9.093099E-2,-6.292681E-2],"split_indices":[8,0,0,0,8,8,0,0,0,0,0],"split_type":[0,0,0,0,0,0,0,0,0,0,0],"sum_hessian":[1.0045768E4,2.7290022E3,7.3167656E3,2.669625E3,5.9377033E1,8.146374E1,7.2353022E3,2.9147448E1,3.0229586E1,4.605418E1,3.540956E1],"tree_param":{"num_deleted":"0","num_feature":"11","num_nodes":"11","size_leaf_vector":"1"}},{"base_weights":[-8.860638E-2,3.6634603E-1,-6.300154E-1,-6.115961E-1,8.7788934E-1,3.7085852E-1,-6.4762406E-2,-6.479543E-2,4.4254363E-1,9.1850865E-1,-6.375217E-2,9.2359304E-2,-6.280776E-2,-6.16724E-2,9.387429E-2,-6.374719E-2,9.3372375E-2],"categories":[],"categories_nodes":[],"categories_segments":[],"categories_sizes":[],"default_left":[0,0,0,0,0,0,0,0,0,0,0,0,0,0,0,0,0],"id":16,"left_children":[1,3,5,7,9,11,-1,-1,13,15,-1,-1,-1,-1,-1,-1,-1],"loss_changes":[2.5913162E3,2.860382E3,8.490027E1,7.555713E1,2.3165039E2,4.6787487E1,0E0,0E0,3.530743E1,8.71543E1,0E0,0E0,0E0,0E0,0E0,0E0,0E0],"parents":[2147483647,0,0,1,1,2,2,3,3,4,4,5,5,8,8,9,9],"right_children":[2,4,6,8,10,12,-1,-1,14,16,-1,-1,-1,-1,-1,-1,-1],"split_conditions":[9.927664E0,-8.69299E0,-1.8910641E2,1.5827814E2,1.6545262E2,1.4665834E1,-6.4762406E-2,-6.479543E-2,-2.765526E1,-2.1492542E2,-6.375217E-2,9.2359304E-2,-6.280776E-2,-6.16724E-2,9.387429E-2,-6.374719E-2,9.3372375E-2],"split_indices":[8,8,0,0,0,8,0,0,8,0,0,0,0,0,0,0,0],"split_type":[0,0,0,0,0,0,0,0,0,0,0,0,0,0,0,0,0],"sum_hessian":[1.0518384E4,5.7157197E3,4.802664E3,1.9629182E3,3.7528015E3,8.268686E1,4.719977E3,1.8978452E3,6.5073E1,3.6552205E3,9.758118E1,5.328079E1,2.9406073E1,2.0681025E1,4.439197E1,3.500031E1,3.62022E3],"tree_param":{"num_deleted":"0","num_feature":"11","num_nodes":"17","size_leaf_vector":"1"}},{"base_weights":[2.7873304E-1,-6.205743E-1,8.8276017E-1,-6.45218E-2,6.856175E-1,2.3332287E-1,8.985003E-2,-5.9473593E-2,8.843743E-2,-6.4298175E-2,8.920399E-2],"categories":[],"categories_nodes":[],"categories_segments":[],"categories_sizes":[],"default_left":[0,0,0,0,0,0,0,0,0,0,0],"id":17,"left_children":[1,3,5,-1,7,9,-1,-1,-1,-1,-1],"loss_changes":[6.1314785E3,1.4643494E2,6.881201E1,0E0,2.2021645E1,9.358202E1,0E0,0E0,0E0,0E0,0E0],"parents":[2147483647,0,0,1,1,2,2,4,4,5,5],"right_children":[2,4,6,-1,8,10,-1,-1,-1,-1,-1],"split_conditions":[8.857239E0,2.0906366E2,-1.6414651E2,-6.45218E-2,-1.0227523E1,1.4665834E1,8.985003E-2,-5.9473593E-2,8.843743E-2,-6.4298175E-2,8.920399E-2],"split_indices":[8,0,0,0,8,8,0,0,0,0,0],"split_type":[0,0,0,0,0,0,0,0,0,0,0],"sum_hessian":[1.1285565E4,4.534434E3,6.7511313E3,4.450965E3,8.34694E1,1.6012703E2,6.5910044E3,1.0948563E1,7.2520836E1,6.872485E1,9.1402176E1],"tree_param":{"num_deleted":"0","num_feature":"11","num_nodes":"11","size_leaf_vector":"1"}},{"base_weights":[-2.1469408E-1,8.139929E-1,-6.216973E-1,8.40769E-1,1.853059E-2,3.26639E-1,-6.272806E-2,8.419376E-2,5.094352E-1,8.2282804E-2,-6.293723E-2,8.456265E-2,-5.9153844E-2,7.521408E-2,-4.2914413E-2],"categories":[],"categories_nodes":[],"categories_segments":[],"categories_sizes":[],"default_left":[0,0,0,0,0,0,0,0,0,0,0,0,0,0,0],"id":18,"left_children":[1,3,5,7,9,11,-1,-1,13,-1,-1,-1,-1,-1,-1],"loss_changes":[3.9868076E3,5.7483643E1,3.6329834E1,5.822754E-1,4.6861927E1,1.9842459E1,0E0,0E0,2.9905012E0,0E0,0E0,0E0,0E0,0E0,0E0],"parents":[2147483647,0,0,1,1,2,2,3,3,4,4,5,5,8,8],"right_children":[2,4,6,8,10,12,-1,-1,14,-1,-1,-1,-1,-1,-1],"split_conditions":[-7.940956E0,1.4773038E2,-2.37577E2,1.4314052E2,-2.765526E1,-3.5513453E0,-6.272806E-2,8.419376E-2,-2.765526E1,8.2282804E-2,-6.293723E-2,8.456265E-2,-5.9153844E-2,7.521408E-2,-4.2914413E-2],"split_indices":[8,0,0,0,8,8,0,0,8,0,0,0,0,0,0],"split_type":[0,0,0,0,0,0,0,0,0,0,0,0,0,0,0],"sum_hessian":[9.520144E3,2.698578E3,6.8215654E3,2.610644E3,8.793393E1,3.959039E1,6.781975E3,2.599933E3,1.0710896E1,3.9111492E1,4.8822433E1,2.5344032E1,1.4246359E1,8.668072E0,2.0428233E0],"tree_param":{"num_deleted":"0","num_feature":"11","num_nodes":"15","size_leaf_vector":"1"}},{"base_weights":[-8.443315E-2,3.480314E-1,-6.1335075E-1,-5.9457076E-1,8.2228464E-1,3.3968323E-1,-6.317121E-2,-6.319706E-2,4.382938E-1,8.575327E-1,-6.216493E-2,8.611947E-2,-6.1309826E-2,-5.995816E-2,8.72603E-2,-6.187464E-2,8.7040246E-2],"categories":[],"categories_nodes":[],"categories_segments":[],"categories_sizes":[],"default_left":[0,0,0,0,0,0,0,0,0,0,0,0,0,0,0,0,0],"id":19,"left_children":[1,3,5,7,9,11,-1,-1,13,15,-1,-1,-1,-1,-1,-1,-1],"loss_changes":[2.2915386E3,2.4644233E3,7.907312E1,7.156641E1,1.8718237E2,4.3176674E1,0E0,0E0,2.985867E1,6.856152E1,0E0,0E0,0E0,0E0,0E0,0E0,0E0],"parents":[2147483647,0,0,1,1,2,2,3,3,4,4,5,5,8,8,9,9],"right_children":[2,4,6,8,10,12,-1,-1,14,16,-1,-1,-1,-1,-1,-1,-1],"split_conditions":[9.927664E0,-8.69299E0,-1.8910641E2,1.5827814E2,1.6545262E2,1.4665834E1,-6.317121E-2,-6.319706E-2,-2.765526E1,-2.1492542E2,-6.216493E-2,8.611947E-2,-6.1309826E-2,-5.995816E-2,8.72603E-2,-6.187464E-2,8.7040246E-2],"split_indices":[8,8,0,0,0,8,0,0,8,0,0,0,0,0,0,0,0],"split_type":[0,0,0,0,0,0,0,0,0,0,0,0,0,0,0,0,0],"sum_hessian":[1.0016242E4,5.510761E3,4.5054805E3,1.8444904E3,3.666271E3,8.483184E1,4.420649E3,1.7804102E3,6.40802E1,3.5793022E3,8.696867E1,5.488583E1,2.994601E1,1.8792038E1,4.5288166E1,3.0526726E1,3.5487756E3],"tree_param":{"num_deleted":"0","num_feature":"11","num_nodes":"17","size_leaf_vector":"1"}},{"base_weights":[2.6669657E-1,-6.126141E-1,8.2272124E-1,-6.297795E-2,5.753748E-1,2.1831122E-1,8.414724E-2,-5.7757825E-2,8.2366504E-2,-6.2846296E-2,8.3698675E-2],"categories":[],"categories_nodes":[],"categories_segments":[],"categories_sizes":[],"default_left":[0,0,0,0,0,0,0,0,0,0,0],"id":20,"left_children":[1,3,5,-1,7,9,-1,-1,-1,-1,-1],"loss_changes":[5.3110366E3,8.617786E1,7.523486E1,0E0,1.7783968E1,1.0613368E2,0E0,0E0,0E0,0E0,0E0],"parents":[2147483647,0,0,1,1,2,2,4,4,5,5],"right_children":[2,4,6,-1,8,10,-1,-1,-1,-1,-1],"split_conditions":[8.366779E0,2.0906366E2,-1.5453378E2,-6.297795E-2,-1.0227523E1,1.4665834E1,8.414724E-2,-5.7757825E-2,8.2366504E-2,-6.2846296E-2,8.3698675E-2],"split_indices":[8,0,0,0,8,8,0,0,0,0,0],"split_type":[0,0,0,0,0,0,0,0,0,0,0],"sum_hessian":[1.0860798E4,4.20725E3,6.6535474E3,4.1477886E3,5.9461864E1,2.005881E2,6.4529595E3,1.0301217E1,4.916065E1,8.4676506E1,1.159116E2],"tree_param":{"num_deleted":"0","num_feature":"11","num_nodes":"11","size_leaf_vector":"1"}},{"base_weights":[-2.0638289E-1,7.789381E-1,-6.043636E-1,7.950041E-2,6.321376E-2,2.0575994E-1,-6.1393064E-2,7.716045E-2,-6.0877424E-2,7.976774E-2,-5.9976846E-2],"categories":[],"categories_nodes":[],"categories_segments":[],"categories_sizes":[],"default_left":[0,0,0,0,0,0,0,0,0,0,0],"id":21,"left_children":[1,3,5,-1,7,9,-1,-1,-1,-1,-1],"loss_changes":[3.5291216E3,2.9723877E1,4.980786E1,0E0,2.8047735E1,3.6508232E1,0E0,0E0,0E0,0E0,0E0],"parents":[2147483647,0,0,1,1,2,2,4,4,5,5],"right_children":[2,4,6,-1,8,10,-1,-1,-1,-1,-1],"split_conditions":[-8.69299E0,1.5827814E2,-2.1492542E2,7.950041E-2,-2.765526E1,-3.5513453E0,-6.1393064E-2,7.716045E-2,-6.0877424E-2,7.976774E-2,-5.9976846E-2],"split_indices":[8,0,0,0,8,8,0,0,0,0,0],"split_type":[0,0,0,0,0,0,0,0,0,0,0],"sum_hessian":[8.997475E3,2.5883296E3,6.4091455E3,2.5313962E3,5.693332E1,7.456487E1,6.3345806E3,2.7643784E1,2.9289536E1,4.2986977E1,3.1577896E1],"tree_param":{"num_deleted":"0","num_feature":"11","num_nodes":"11","size_leaf_vector":"1"}},{"base_weights":[-8.128521E-2,-5.62491E-2,-1.6215962E-1,-5.0099198E-2,-1.1482597E-1,-1.343285E-1,-2.8353566E-1,-4.11401E-2,-7.773055E-2,-9.023986E-3,-1.3082357E-1,-1.18758544E-1,-2.2722334E-1,-2.5002596E-1,-3.8595206E-1,-2.4178863E-1,-3.9811652E-2,-8.363449E-2,1.5276598E-2,-5.093747E-2,2.1477658E-1,-9.632603E-2,-1.8846188E-1,-1.1059972E-1,-2.0112143E-1,-2.3998745E-1,1.06056325E-1,-2.1415684E-1,-3.417205E-1,-1.696151E-1,-4.1127476E-1,-2.6708022E-2,1.5750732E-2,-4.284012E-3,4.887219E-3,-8.149523E-3,-4.098803E-2,-3.4934845E-2,6.8270974E-3,-1.9456534E-2,3.261062E-3,3.8242936E-2,6.508743E-4,1.5557172E-2,-1.0575554E-2,-1.265101E-2,-2.4503736E-2,-1.2357336E-2,-3.7540991E-3,-2.2256415E-2,1.3816083E-2,-2.0403244E-2,-3.662947E-2,2.2807157E-2,-2.2286866E-2,-2.9673953E-2,-1.1974365E-2,-3.8199205E-2,-6.309978E-3,-4.61162E-3,-3.5136074E-2,3.59218E-3,-4.22852E-2],"categories":[],"categories_nodes":[],"categories_segments":[],"categories_sizes":[],"default_left":[0,0,0,0,0,0,0,0,0,0,0,0,0,0,0,0,0,0,0,0,0,0,0,0,0,0,0,0,0,0,0,0,0,0,0,0,0,0,0,0,0,0,0,0,0,0,0,0,0,0,0,0,0,0,0,0,0,0,0,0,0,0,0],"id":22,"left_children":[1,3,5,7,9,11,13,15,17,19,21,23,25,27,29,31,33,35,37,39,41,43,45,47,49,51,53,55,57,59,61,-1,-1,-1,-1,-1,-1,-1,-1,-1,-1,-1,-1,-1,-1,-1,-1,-1,-1,-1,-1,-1,-1,-1,-1,-1,-1,-1,-1,-1,-1,-1,-1],"loss_changes":[1.9287922E1,2.616476E0,7.5704575E0,1.6279812E0,1.1681089E0,2.6258507E0,1.3422623E0,1.3172655E0,8.8657E-1,8.721487E-1,1.174922E0,1.0347481E0,1.1408243E0,9.7506714E-1,4.8634624E-1,3.7072635E-1,1.3305917E0,1.0247564E0,1.8997135E0,9.439745E-1,5.0987256E-1,9.129E-1,7.5276184E-1,1.3539867E0,1.0532651E0,1.073451E0,4.6680567E-1,1.7715883E0,9.62615E-1,2.6074895E-1,4.8204136E-1,0E0,0E0,0E0,0E0,0E0,0E0,0E0,0E0,0E0,0E0,0E0,0E0,0E0,0E0,0E0,0E0,0E0,0E0,0E0,0E0,0E0,0E0,0E0,0E0,0E0,0E0,0E0,0E0,0E0,0E0,0E0,0E0],"parents":[2147483647,0,0,1,1,2,2,3,3,4,4,5,5,6,6,7,7,8,8,9,9,10,10,11,11,12,12,13,13,14,14,15,15,16,16,17,17,18,18,19,19,20,20,21,21,22,22,23,23,24,24,25,25,26,26,27,27,28,28,29,29,30,30],"right_children":[2,4,6,8,10,12,14,16,18,20,22,24,26,28,30,32,34,36,38,40,42,44,46,48,50,52,54,56,58,60,62,-1,-1,-1,-1,-1,-1,-1,-1,-1,-1,-1,-1,-1,-1,-1,-1,-1,-1,-1,-1,-1,-1,-1,-1,-1,-1,-1,-1,-1,-1,-1,-1],"split_conditions":[4.878669E1,1.5E0,1.3462589E2,7.6101236E0,-8.6E1,1.7E0,1.941139E2,-4E0,4.5755417E1,-1E2,7.5E-1,2.94E2,0E0,1.65E0,-1.9166666E0,1E0,4.038646E0,1.1333333E0,-3E0,1.65E0,3.3333334E-1,-9.23205E1,1.85E0,1.46E2,1.116E3,1.57E2,6.5E-1,-9.5E-1,9.79E2,3.3333334E-1,8E0,-2.6708022E-2,1.5750732E-2,-4.284012E-3,4.887219E-3,-8.149523E-3,-4.098803E-2,-3.4934845E-2,6.8270974E-3,-1.9456534E-2,3.261062E-3,3.8242936E-2,6.508743E-4,1.5557172E-2,-1.0575554E-2,-1.265101E-2,-2.4503736E-2,-1.2357336E-2,-3.7540991E-3,-2.2256415E-2,1.3816083E-2,-2.0403244E-2,-3.662947E-2,2.2807157E-2,-2.2286866E-2,-2.9673953E-2,-1.1974365E-2,-3.8199205E-2,-6.309978E-3,-4.61162E-3,-3.5136074E-2,3.59218E-3,-4.22852E-2],"split_indices":[0,3,0,0,2,3,0,7,0,2,5,2,7,3,4,5,0,4,7,3,9,0,3,2,2,2,4,4,2,9,2,0,0,0,0,0,0,0,0,0,0,0,0,0,0,0,0,0,0,0,0,0,0,0,0,0,0,0,0,0,0,0,0],"split_type":[0,0,0,0,0,0,0,0,0,0,0,0,0,0,0,0,0,0,0,0,0,0,0,0,0,0,0,0,0,0,0,0,0,0,0,0,0,0,0,0,0,0,0,0,0,0,0,0,0,0,0,0,0,0,0,0,0,0,0,0,0,0,0],"sum_hessian":[9.529433E3,7.278072E3,2.2513608E3,6.5882373E3,6.8983435E2,1.8331356E3,4.182252E2,4.9770005E3,1.6112368E3,9.081072E1,5.990236E2,1.5719431E3,2.611925E2,3.177135E2,1.00511665E2,3.1544304E1,4.945456E3,1.5151578E3,9.60789E1,7.713688E1,1.3673837E1,3.7640808E2,2.2261554E2,1.4323938E3,1.3954941E2,2.5182779E2,9.364708E0,2.307745E2,8.693901E1,1.1338944E1,8.917272E1,2.9976688E1,1.5676147E0,4.7826504E3,1.6280582E2,1.506529E3,8.62878E0,1.1482435E1,8.4596466E1,2.7879807E1,4.9257076E1,7.1122966E0,6.5615406E0,1.3022762E1,3.633853E2,1.078036E2,1.1481195E2,1.2158024E3,2.1659138E2,1.3157768E2,7.9717207E0,1.9806215E2,5.376565E1,7.05446E0,2.310248E0,1.2195669E2,1.0881782E2,7.563569E1,1.130332E1,7.49781E0,3.8411343E0,2.197231E0,8.6975494E1],"tree_param":{"num_deleted":"0","num_feature":"11","num_nodes":"63","size_leaf_vector":"1"}},{"base_weights":[2.547876E-1,-5.9286475E-1,7.816418E-1,-6.161299E-2,5.8831453E-1,2.2849905E-1,7.947597E-2,-5.6910396E-2,7.825553E-2,-6.1165012E-2,7.890409E-2],"categories":[],"categories_nodes":[],"categories_segments":[],"categories_sizes":[],"default_left":[0,0,0,0,0,0,0,0,0,0,0],"id":23,"left_children":[1,3,5,-1,7,9,-1,-1,-1,-1,-1],"loss_changes":[4.6432627E3,1.0988379E2,4.634204E1,0E0,1.7867586E1,7.109287E1,0E0,0E0,0E0,0E0,0E0],"parents":[2147483647,0,0,1,1,2,2,4,4,5,5],"right_children":[2,4,6,-1,8,10,-1,-1,-1,-1,-1],"split_conditions":[8.857239E0,2.0906366E2,-1.6414651E2,-6.161299E-2,-1.0227523E1,1.4665834E1,7.947597E-2,-5.6910396E-2,7.825553E-2,-6.1165012E-2,7.890409E-2],"split_indices":[8,0,0,0,8,8,0,0,0,0,0],"split_type":[0,0,0,0,0,0,0,0,0,0,0],"sum_hessian":[1.039513E4,3.9844497E3,6.4106807E3,3.9079548E3,7.649488E1,1.489351E2,6.2617456E3,1.0715394E1,6.577949E1,5.9565777E1,8.936932E1],"tree_param":{"num_deleted":"0","num_feature":"11","num_nodes":"11","size_leaf_vector":"1"}},{"base_weights":[-2.0458849E-1,7.470782E-1,-5.9491384E-1,7.635958E-2,4.527098E-2,2.1211013E-1,-6.043865E-2,7.385922E-2,-6.0617834E-2,7.6670974E-2,-5.8980983E-2],"categories":[],"categories_nodes":[],"categories_segments":[],"categories_sizes":[],"default_left":[0,0,0,0,0,0,0,0,0,0,0],"id":24,"left_children":[1,3,5,-1,7,9,-1,-1,-1,-1,-1],"loss_changes":[3.1716033E3,2.8754272E1,4.6413086E1,0E0,2.6720795E1,3.2021282E1,0E0,0E0,0E0,0E0,0E0],"parents":[2147483647,0,0,1,1,2,2,4,4,5,5],"right_children":[2,4,6,-1,8,10,-1,-1,-1,-1,-1],"split_conditions":[-8.69299E0,1.5827814E2,-2.1492542E2,7.635958E-2,-2.765526E1,-3.5513453E0,-6.043865E-2,7.385922E-2,-6.0617834E-2,7.6670974E-2,-5.8980983E-2],"split_indices":[8,0,0,0,8,8,0,0,0,0,0],"split_type":[0,0,0,0,0,0,0,0,0,0,0],"sum_hessian":[8.536021E3,2.4824802E3,6.053541E3,2.4253108E3,5.7169556E1,6.998248E1,5.9835586E3,2.7629936E1,2.953962E1,4.1396793E1,2.8585691E1],"tree_param":{"num_deleted":"0","num_feature":"11","num_nodes":"11","size_leaf_vector":"1"}},{"base_weights":[-7.43446E-2,3.308474E-1,-5.947354E-1,-5.745893E-1,7.588016E-1,2.882238E-1,-6.1094012E-2,-6.113798E-2,4.086056E-1,7.8972316E-1,-5.9788436E-2,7.893362E-2,-5.9086453E-2,-5.757902E-2,8.083639E-2,-5.98242E-2,8.018156E-2],"categories":[],"categories_nodes":[],"categories_segments":[],"categories_sizes":[],"default_left":[0,0,0,0,0,0,0,0,0,0,0,0,0,0,0,0,0],"id":25,"left_children":[1,3,5,7,9,11,-1,-1,13,15,-1,-1,-1,-1,-1,-1,-1],"loss_changes":[1.9434219E3,2.0084012E3,5.790564E1,6.043152E1,1.4810925E2,3.2797844E1,0E0,0E0,2.4316875E1,5.8238037E1,0E0,0E0,0E0,0E0,0E0,0E0,0E0],"parents":[2147483647,0,0,1,1,2,2,3,3,4,4,5,5,8,8,9,9],"right_children":[2,4,6,8,10,12,-1,-1,14,16,-1,-1,-1,-1,-1,-1,-1],"split_conditions":[9.927664E0,-8.69299E0,-1.8910641E2,1.5827814E2,1.6545262E2,1.3670315E1,-6.1094012E-2,-6.113798E-2,-2.765526E1,-2.1492542E2,-5.9788436E-2,7.893362E-2,-5.9086453E-2,-5.757902E-2,8.083639E-2,-5.98242E-2,8.018156E-2],"split_indices":[8,8,0,0,0,8,0,0,8,0,0,0,0,0,0,0,0],"split_type":[0,0,0,0,0,0,0,0,0,0,0,0,0,0,0,0,0],"sum_hessian":[9.214791E3,5.1810405E3,4.0337505E3,1.6627542E3,3.5182864E3,7.2393486E1,3.9613572E3,1.6031437E3,5.9610394E1,3.4402932E3,7.799329E1,4.6174458E1,2.6219028E1,1.7088936E1,4.252146E1,2.9295506E1,3.4109976E3],"tree_param":{"num_deleted":"0","num_feature":"11","num_nodes":"17","size_leaf_vector":"1"}},{"base_weights":[2.4337234E-1,-5.9094477E-1,7.459981E-1,-6.066405E-1,6.213021E-1,2.037818E-1,7.630419E-2,-6.0812067E-2,-6.0196552E-2,-5.0083745E-2,7.4171215E-2,-6.0855087E-2,7.5962186E-2,-5.2863885E-2,6.0833503E-2],"categories":[],"categories_nodes":[],"categories_segments":[],"categories_sizes":[],"default_left":[0,0,0,0,0,0,0,0,0,0,0,0,0,0,0],"id":26,"left_children":[1,3,5,7,9,11,-1,-1,13,-1,-1,-1,-1,-1,-1],"loss_changes":[4.184391E3,7.17572E1,5.738867E1,2.9593506E0,6.917404E0,8.676184E1,0E0,0E0,3.802859E0,0E0,0E0,0E0,0E0,0E0,0E0],"parents":[2147483647,0,0,1,1,2,2,3,3,4,4,5,5,8,8],"right_children":[2,4,6,8,10,12,-1,-1,14,-1,-1,-1,-1,-1,-1],"split_conditions":[8.366779E0,2.3434172E2,-1.5453378E2,2.0906366E2,-1.1617466E1,1.4665834E1,7.630419E-2,-6.0812067E-2,-1.0227523E1,-5.0083745E-2,7.4171215E-2,-6.0855087E-2,7.5962186E-2,-5.2863885E-2,6.0833503E-2],"split_indices":[8,0,0,0,8,8,0,0,8,0,0,0,0,0,0],"split_type":[0,0,0,0,0,0,0,0,0,0,0,0,0,0,0],"sum_hessian":[9.976244E3,3.7505186E3,6.225726E3,3.7030723E3,4.744642E1,1.9012827E2,6.0355977E3,3.692956E3,1.0116284E1,4.2916574E0,4.3154762E1,7.720384E1,1.1292442E2,6.071334E0,4.04495E0],"tree_param":{"num_deleted":"0","num_feature":"11","num_nodes":"15","size_leaf_vector":"1"}},{"base_weights":[-1.9637908E-1,7.145711E-1,-5.843375E-1,7.297214E-2,3.9814536E-2,1.8428367E-1,-5.9362262E-2,7.050996E-2,-5.9188124E-2,7.262948E-2,-5.7841875E-2],"categories":[],"categories_nodes":[],"categories_segments":[],"categories_sizes":[],"default_left":[0,0,0,0,0,0,0,0,0,0,0],"id":27,"left_children":[1,3,5,-1,7,9,-1,-1,-1,-1,-1],"loss_changes":[2.831831E3,2.4437988E1,4.0213013E1,0E0,2.2949953E1,2.8462835E1,0E0,0E0,0E0,0E0,0E0],"parents":[2147483647,0,0,1,1,2,2,4,4,5,5],"right_children":[2,4,6,-1,8,10,-1,-1,-1,-1,-1],"split_conditions":[-8.69299E0,1.5827814E2,-2.1492542E2,7.297214E-2,-2.765526E1,-3.5513453E0,-5.9362262E-2,7.050996E-2,-5.9188124E-2,7.262948E-2,-5.7841875E-2],"split_indices":[8,0,0,0,8,8,0,0,0,0,0],"split_type":[0,0,0,0,0,0,0,0,0,0,0],"sum_hessian":[8.0106797E3,2.3923806E3,5.6182993E3,2.3397644E3,5.2616184E1,6.68355E1,5.551464E3,2.5570166E1,2.7046017E1,3.9098244E1,2.7737259E1],"tree_param":{"num_deleted":"0","num_feature":"11","num_nodes":"11","size_leaf_vector":"1"}},{"base_weights":[-7.358288E-2,3.1126222E-1,-5.886897E-1,-5.6320554E-1,7.0755625E-1,3.356488E-1,-5.985937E-1,-5.995489E-2,4.0130123E-1,7.511761E-1,-5.8935255E-2,7.419165E-2,-5.5546403E-2,-2.1087039E-1,-5.9926506E-2,-5.6156553E-2,7.650838E-2,-5.8487207E-2,7.621844E-2,4.9319185E-2,-5.0263833E-2],"categories":[],"categories_nodes":[],"categories_segments":[],"categories_sizes":[],"default_left":[0,0,0,0,0,0,0,0,0,0,0,0,0,0,0,0,0,0,0,0,0],"id":28,"left_children":[1,3,5,7,9,11,13,-1,15,17,-1,-1,-1,19,-1,-1,-1,-1,-1,-1,-1],"loss_changes":[1.7163948E3,1.717849E3,3.409607E1,5.4436127E1,1.9339636E2,1.4854031E1,8.2714844E-1,0E0,2.0304588E1,4.898462E1,0E0,0E0,0E0,1.865603E0,0E0,0E0,0E0,0E0,0E0,0E0,0E0],"parents":[2147483647,0,0,1,1,2,2,3,3,4,4,5,5,6,6,8,8,9,9,13,13],"right_children":[2,4,6,8,10,12,14,-1,16,18,-1,-1,-1,20,-1,-1,-1,-1,-1,-1,-1],"split_conditions":[1.0769333E1,-8.69299E0,-2.1492542E2,1.5827814E2,1.6545262E2,1.4665834E1,-2.0123996E2,-5.995489E-2,-2.765526E1,-2.1492542E2,-5.8935255E-2,7.419165E-2,-5.5546403E-2,1.1215495E1,-5.9926506E-2,-5.6156553E-2,7.650838E-2,-5.8487207E-2,7.621844E-2,4.9319185E-2,-5.0263833E-2],"split_indices":[8,8,0,0,0,8,0,0,8,0,0,0,0,8,0,0,0,0,0,0,0],"split_type":[0,0,0,0,0,0,0,0,0,0,0,0,0,0,0,0,0,0,0,0,0],"sum_hessian":[8.656401E3,4.954904E3,3.7014976E3,1.5450826E3,3.4098213E3,3.8891476E1,3.6626062E3,1.4893414E3,5.5741116E1,3.2992751E3,1.1054616E2,2.682782E1,1.2063657E1,6.8750067E0,3.6557312E3,1.5135773E1,4.0605343E1,2.6535948E1,3.2727393E3,1.8120385E0,5.062968E0],"tree_param":{"num_deleted":"0","num_feature":"11","num_nodes":"21","size_leaf_vector":"1"}},{"base_weights":[2.330486E-1,-5.8009964E-1,7.130071E-1,-5.954684E-1,6.163447E-1,1.8189156E-1,7.293229E-2,-5.9693962E-2,-7.514084E-2,-4.611088E-2,7.0913665E-2,-5.962484E-2,7.254567E-2,-5.1959205E-2,5.7981063E-2],"categories":[],"categories_nodes":[],"categories_segments":[],"categories_sizes":[],"default_left":[0,0,0,0,0,0,0,0,0,0,0,0,0,0,0],"id":29,"left_children":[1,3,5,7,9,11,-1,-1,13,-1,-1,-1,-1,-1,-1],"loss_changes":[3.684852E3,6.480859E1,5.1314453E1,2.604248E0,4.8198376E0,7.5839516E1,0E0,0E0,3.47464E0,0E0,0E0,0E0,0E0,0E0,0E0],"parents":[2147483647,0,0,1,1,2,2,3,3,4,4,5,5,8,8],"right_children":[2,4,6,8,10,12,-1,-1,14,-1,-1,-1,-1,-1,-1],"split_conditions":[8.366779E0,2.3434172E2,-1.5453378E2,2.0906366E2,-1.1617466E1,1.4665834E1,7.293229E-2,-5.9693962E-2,-1.0227523E1,-4.611088E-2,7.0913665E-2,-5.962484E-2,7.254567E-2,-5.1959205E-2,5.7981063E-2],"split_indices":[8,0,0,0,8,8,0,0,8,0,0,0,0,0,0],"split_type":[0,0,0,0,0,0,0,0,0,0,0,0,0,0,0],"sum_hessian":[9.4395625E3,3.5035762E3,5.9359863E3,3.4596384E3,4.393794E1,1.7727982E2,5.7587065E3,3.4497368E3,9.901547E0,3.1692243E0,4.0768715E1,7.286833E1,1.0441148E2,6.021808E0,3.879739E0],"tree_param":{"num_deleted":"0","num_feature":"11","num_nodes":"15","size_leaf_vector":"1"}},{"base_weights":[-1.9243678E-1,6.7849153E-1,-5.785687E-1,7.002353E-1,6.093785E-4,2.5429508E-1,-5.8397796E-2,7.012074E-2,3.898E-1,6.821844E-2,-5.8464088E-2,6.88863E-2,-5.4341394E-2,6.0715836E-2,-3.7349854E-2],"categories":[],"categories_nodes":[],"categories_segments":[],"categories_sizes":[],"default_left":[0,0,0,0,0,0,0,0,0,0,0,0,0,0,0],"id":30,"left_children":[1,3,5,7,9,11,-1,-1,13,-1,-1,-1,-1,-1,-1],"loss_changes":[2.510532E3,3.3801025E1,2.344873E1,3.972168E-1,2.922768E1,1.2185057E1,0E0,0E0,1.7510523E0,0E0,0E0,0E0,0E0,0E0,0E0],"parents":[2147483647,0,0,1,1,2,2,3,3,4,4,5,5,8,8],"right_children":[2,4,6,8,10,12,-1,-1,14,-1,-1,-1,-1,-1,-1],"split_conditions":[-7.940956E0,1.4773038E2,-2.37577E2,1.4314052E2,-2.765526E1,-3.5513453E0,-5.8397796E-2,7.012074E-2,-2.765526E1,6.821844E-2,-5.8464088E-2,6.88863E-2,-5.4341394E-2,6.0715836E-2,-3.7349854E-2],"split_indices":[8,0,0,0,8,8,0,0,8,0,0,0,0,0,0],"split_type":[0,0,0,0,0,0,0,0,0,0,0,0,0,0,0],"sum_hessian":[7.4631396E3,2.292224E3,5.1709155E3,2.220952E3,7.127232E1,3.307016E1,5.137845E3,2.2127644E3,8.187425E0,3.2850002E1,3.8422325E1,2.149615E1,1.1574009E1,6.5319376E0,1.6554873E0],"tree_param":{"num_deleted":"0","num_feature":"11","num_nodes":"15","size_leaf_vector":"1"}},{"base_weights":[-7.127198E-2,-4.5510337E-2,-1.3171661E-1,-2.772685E-2,-6.492464E-2,-1.1923447E-1,-2.958384E-1,-1.00012526E-1,-2.1126654E-2,-7.700667E-2,-1.505518E-2,-4.6793062E-2,-1.2762463E-1,7.308228E-4,-3.159239E-1,-1.2264779E-1,3.133125E-1,4.5477822E-3,-3.5828523E-2,-3.8093883E-1,-7.582054E-2,4.431501E-2,-5.396279E-2,-1.3921483E-1,1.13471355E-2,-2.5312978E-1,-1.2100647E-1,2.8118065E-1,-2.4674392E-1,-4.252496E-2,-2.8458238E-1,-9.292009E-3,-2.4410322E-2,3.5707537E-2,-6.660603E-3,1.1523974E-3,-1.0953627E-2,-4.082655E-3,4.4786665E-3,-4.853725E-2,-1.1589054E-2,-8.269907E-3,-3.7743736E-3,5.8861105E-3,-1.7161606E-2,-2.6303057E-3,-2.2786038E-2,-8.399332E-3,-2.4682716E-2,1.186199E-2,-5.0152745E-3,-2.7933473E-2,-1.1808497E-3,-1.2808825E-2,-3.4832011E-3,-2.9380208E-2,4.5425083E-2,2.9560257E-4,-3.427481E-2,-3.568343E-2,-2.281919E-2],"categories":[],"categories_nodes":[],"categories_segments":[],"categories_sizes":[],"default_left":[0,0,0,0,0,0,0,0,0,0,0,0,0,0,0,0,0,0,0,0,0,0,0,0,0,0,0,0,0,0,0,0,0,0,0,0,0,0,0,0,0,0,0,0,0,0,0,0,0,0,0,0,0,0,0,0,0,0,0,0,0],"id":31,"left_children":[1,3,5,7,9,11,13,15,17,19,21,23,25,27,29,31,33,35,37,39,41,43,45,47,49,51,53,55,57,-1,59,-1,-1,-1,-1,-1,-1,-1,-1,-1,-1,-1,-1,-1,-1,-1,-1,-1,-1,-1,-1,-1,-1,-1,-1,-1,-1,-1,-1,-1,-1],"loss_changes":[1.2699474E1,1.9739542E0,4.9588013E0,1.4236977E0,1.6468134E0,1.3720131E0,1.0225649E0,2.3752303E0,1.0343049E0,7.6474285E-1,1.2374212E0,1.2745876E0,1.6565742E0,8.941796E-1,4.2975426E-1,8.349161E-1,2.4407601E-1,7.959237E-1,7.038088E-1,1.7375624E-1,5.7155323E-1,6.766629E-1,1.5497388E0,5.233563E-1,9.714566E-1,6.343479E-1,1.1742363E0,7.3433924E-1,1.651214E-1,0E0,4.3988514E-1,0E0,0E0,0E0,0E0,0E0,0E0,0E0,0E0,0E0,0E0,0E0,0E0,0E0,0E0,0E0,0E0,0E0,0E0,0E0,0E0,0E0,0E0,0E0,0E0,0E0,0E0,0E0,0E0,0E0,0E0],"parents":[2147483647,0,0,1,1,2,2,3,3,4,4,5,5,6,6,7,7,8,8,9,9,10,10,11,11,12,12,13,13,14,14,15,15,16,16,17,17,18,18,19,19,20,20,21,21,22,22,23,23,24,24,25,25,26,26,27,27,28,28,30,30],"right_children":[2,4,6,8,10,12,14,16,18,20,22,24,26,28,30,32,34,36,38,40,42,44,46,48,50,52,54,56,58,-1,60,-1,-1,-1,-1,-1,-1,-1,-1,-1,-1,-1,-1,-1,-1,-1,-1,-1,-1,-1,-1,-1,-1,-1,-1,-1,-1,-1,-1,-1,-1],"split_conditions":[3.335289E1,-3.1E1,1.6545262E2,-4.7E2,1.3333334E-1,-2.55E2,2E1,-2.8E2,1.6666667E-1,-6.666667E-1,-4.8808784E1,-6.8E2,-2.1666667E0,4.6666667E-1,0E0,-4.12E2,9E-1,9.4E1,2.3825443E1,2.79E2,5.35E2,1.13E2,9E-1,7.659415E1,5.070338E1,7.71E2,1.078E3,0E0,-1.82E2,-4.252496E-2,3.99E2,-9.292009E-3,-2.4410322E-2,3.5707537E-2,-6.660603E-3,1.1523974E-3,-1.0953627E-2,-4.082655E-3,4.4786665E-3,-4.853725E-2,-1.1589054E-2,-8.269907E-3,-3.7743736E-3,5.8861105E-3,-1.7161606E-2,-2.6303057E-3,-2.2786038E-2,-8.399332E-3,-2.4682716E-2,1.186199E-2,-5.0152745E-3,-2.7933473E-2,-1.1808497E-3,-1.2808825E-2,-3.4832011E-3,-2.9380208E-2,4.5425083E-2,2.9560257E-4,-3.427481E-2,-3.568343E-2,-2.281919E-2],"split_indices":[0,1,0,2,4,1,1,1,5,9,0,1,4,5,9,1,4,2,0,1,1,2,4,0,0,1,1,9,1,0,1,0,0,0,0,0,0,0,0,0,0,0,0,0,0,0,0,0,0,0,0,0,0,0,0,0,0,0,0,0,0],"split_type":[0,0,0,0,0,0,0,0,0,0,0,0,0,0,0,0,0,0,0,0,0,0,0,0,0,0,0,0,0,0,0,0,0,0,0,0,0,0,0,0,0,0,0,0,0,0,0,0,0,0,0,0,0,0,0,0,0,0,0,0,0],"sum_hessian":[8.1584224E3,5.7216113E3,2.4368108E3,2.987496E3,2.7341152E3,2.2661846E3,1.7062617E2,2.4877267E2,2.7387234E3,2.2004592E3,5.3365594E2,2.3590831E2,2.0302764E3,1.0883999E1,1.5974217E2,2.3652303E2,1.224964E1,9.9747876E2,1.7412446E3,7.309485E0,2.19315E3,2.1121626E2,3.2243967E2,9.05586E1,1.4534972E2,9.983246E1,1.9304438E3,5.0382366E0,5.845762E0,3.2791245E1,1.2695093E2,1.9143262E2,4.509041E1,1.1038268E1,1.2113726E0,9.4084546E2,5.6633316E1,1.6400569E3,1.011877E2,4.647161E0,2.6623242E0,1.856588E3,3.365618E2,1.9856728E2,1.2648982E1,2.791845E2,4.3255165E1,6.1024345E1,2.9534262E1,5.262624E1,9.272347E1,8.991148E1,9.92097E0,1.7833986E3,1.4704532E2,1.004256E0,4.0339804E0,1.8925596E0,3.9532022E0,5.3313534E1,7.36374E1],"tree_param":{"num_deleted":"0","num_feature":"11","num_nodes":"61","size_leaf_vector":"1"}},{"base_weights":[2.2633956E-1,-5.699807E-1,6.860687E-1,-5.852869E-1,5.772152E-1,2.0464365E-1,7.008364E-2,-5.869301E-2,-4.428735E-2,-4.648813E-2,6.813074E-2,-5.8461677E-2,6.970479E-2,-5.067795E-2,5.6632586E-2],"categories":[],"categories_nodes":[],"categories_segments":[],"categories_sizes":[],"default_left":[0,0,0,0,0,0,0,0,0,0,0,0,0,0,0],"id":32,"left_children":[1,3,5,7,9,11,-1,-1,13,-1,-1,-1,-1,-1,-1],"loss_changes":[3.2434578E3,5.7280884E1,3.978833E1,2.819336E0,5.002988E0,6.592226E1,0E0,0E0,3.3295095E0,0E0,0E0,0E0,0E0,0E0,0E0],"parents":[2147483647,0,0,1,1,2,2,3,3,4,4,5,5,8,8],"right_children":[2,4,6,8,10,12,-1,-1,14,-1,-1,-1,-1,-1,-1],"split_conditions":[8.366779E0,2.3434172E2,-1.5453378E2,2.0906366E2,-1.1617466E1,1.4665834E1,7.008364E-2,-5.869301E-2,-1.0227523E1,-4.648813E-2,6.813074E-2,-5.8461677E-2,6.970479E-2,-5.067795E-2,5.6632586E-2],"split_indices":[8,0,0,0,8,8,0,0,8,0,0,0,0,0,0],"split_type":[0,0,0,0,0,0,0,0,0,0,0,0,0,0,0],"sum_hessian":[8.857619E3,3.2419075E3,5.615712E3,3.1997058E3,4.2201668E1,1.6757645E2,5.4481357E3,3.1899321E3,9.773605E0,3.5178106E0,3.8683857E1,6.430945E1,1.03267E2,5.6580896E0,4.1155157E0],"tree_param":{"num_deleted":"0","num_feature":"11","num_nodes":"15","size_leaf_vector":"1"}},{"base_weights":[-1.9117941E-1,6.668986E-1,-5.684304E-1,6.8186514E-2,2.0652225E-2,1.7111355E-1,-5.7745125E-2,6.5592624E-2,-5.7590514E-2,6.7512676E-2,-5.6101598E-2],"categories":[],"categories_nodes":[],"categories_segments":[],"categories_sizes":[],"default_left":[0,0,0,0,0,0,0,0,0,0,0],"id":33,"left_children":[1,3,5,-1,7,9,-1,-1,-1,-1,-1],"loss_changes":[2.283033E3,2.081842E1,3.277893E1,0E0,1.9244913E1,2.2446472E1,0E0,0E0,0E0,0E0,0E0],"parents":[2147483647,0,0,1,1,2,2,4,4,5,5],"right_children":[2,4,6,-1,8,10,-1,-1,-1,-1,-1],"split_conditions":[-8.69299E0,1.5827814E2,-2.1492542E2,6.8186514E-2,-2.765526E1,-3.5513453E0,-5.7745125E-2,6.5592624E-2,-5.7590514E-2,6.7512676E-2,-5.6101598E-2],"split_indices":[8,0,0,0,8,8,0,0,0,0,0],"split_type":[0,0,0,0,0,0,0,0,0,0,0],"sum_hessian":[7.050522E3,2.1528896E3,4.8976323E3,2.1041052E3,4.87844E1,5.880363E1,4.8388286E3,2.3577354E1,2.5207048E1,3.4873703E1,2.3929926E1],"tree_param":{"num_deleted":"0","num_feature":"11","num_nodes":"11","size_leaf_vector":"1"}},{"base_weights":[-6.5240666E-2,3.0193347E-1,-5.7367903E-1,-5.4720694E-1,6.6840726E-1,3.1595194E-1,-5.8295465E-1,-5.8414437E-2,3.6616635E-1,7.070696E-1,-5.7240993E-2,6.94867E-2,-5.3427037E-2,-1.7191495E-1,-5.838088E-2,-5.4544933E-2,7.215156E-2,-5.6627996E-2,7.171341E-2,4.9579512E-2,-4.903103E-2],"categories":[],"categories_nodes":[],"categories_segments":[],"categories_sizes":[],"default_left":[0,0,0,0,0,0,0,0,0,0,0,0,0,0,0,0,0,0,0,0,0],"id":34,"left_children":[1,3,5,7,9,11,13,-1,15,17,-1,-1,-1,19,-1,-1,-1,-1,-1,-1,-1],"loss_changes":[1.4723359E3,1.425502E3,2.7474243E1,4.6812042E1,1.5389282E2,1.1574146E1,1.0489502E0,0E0,1.798357E1,4.0176025E1,0E0,0E0,0E0,1.987493E0,0E0,0E0,0E0,0E0,0E0,0E0,0E0],"parents":[2147483647,0,0,1,1,2,2,3,3,4,4,5,5,6,6,8,8,9,9,13,13],"right_children":[2,4,6,8,10,12,14,-1,16,18,-1,-1,-1,20,-1,-1,-1,-1,-1,-1,-1],"split_conditions":[1.0769333E1,-8.69299E0,-2.1492542E2,1.5827814E2,1.6545262E2,1.4665834E1,-2.0123996E2,-5.8414437E-2,-2.765526E1,-2.1492542E2,-5.7240993E-2,6.94867E-2,-5.3427037E-2,1.1215495E1,-5.838088E-2,-5.4544933E-2,7.215156E-2,-5.6627996E-2,7.171341E-2,4.9579512E-2,-4.903103E-2],"split_indices":[8,8,0,0,0,8,0,0,8,0,0,0,0,8,0,0,0,0,0,0,0],"split_type":[0,0,0,0,0,0,0,0,0,0,0,0,0,0,0,0,0,0,0,0,0],"sum_hessian":[7.884795E3,4.578668E3,3.3061272E3,1.380192E3,3.1984758E3,3.3774117E1,3.272353E3,1.3268921E3,5.3299927E1,3.102244E3,9.623197E1,2.348872E1,1.0285397E1,7.2052417E0,3.265148E3,1.4799136E1,3.8500793E1,2.3894348E1,3.0783496E3,2.146541E0,5.0587006E0],"tree_param":{"num_deleted":"0","num_feature":"11","num_nodes":"21","size_leaf_vector":"1"}},{"base_weights":[2.180565E-1,-5.6504893E-1,6.662786E-1,-5.79939E-1,5.341868E-1,1.6609709E-1,6.813903E-2,-5.813867E-2,-8.0406725E-2,-4.796026E-2,6.5975554E-2,-5.8057673E-2,6.774466E-2,-5.0050087E-2,5.340258E-2],"categories":[],"categories_nodes":[],"categories_segments":[],"categories_sizes":[],"default_left":[0,0,0,0,0,0,0,0,0,0,0,0,0,0,0],"id":35,"left_children":[1,3,5,7,9,11,-1,-1,13,-1,-1,-1,-1,-1,-1],"loss_changes":[2.9895815E3,5.105841E1,4.0828613E1,2.1658936E0,5.657753E0,6.1548462E1,0E0,0E0,2.8489614E0,0E0,0E0,0E0,0E0,0E0,0E0],"parents":[2147483647,0,0,1,1,2,2,3,3,4,4,5,5,8,8],"right_children":[2,4,6,8,10,12,-1,-1,14,-1,-1,-1,-1,-1,-1],"split_conditions":[8.366779E0,2.3434172E2,-1.5453378E2,2.0906366E2,-1.1617466E1,1.4665834E1,6.813903E-2,-5.813867E-2,-1.0227523E1,-4.796026E-2,6.5975554E-2,-5.8057673E-2,6.774466E-2,-5.0050087E-2,5.340258E-2],"split_indices":[8,0,0,0,8,8,0,0,8,0,0,0,0,0,0],"split_type":[0,0,0,0,0,0,0,0,0,0,0,0,0,0,0],"sum_hessian":[8.515129E3,3.0995425E3,5.415586E3,3.0585837E3,4.0958557E1,1.5917114E2,5.256415E3,3.049582E3,9.001883E0,4.203314E0,3.6755245E1,6.464336E1,9.452778E1,5.456584E0,3.545299E0],"tree_param":{"num_deleted":"0","num_feature":"11","num_nodes":"15","size_leaf_vector":"1"}},{"base_weights":[-1.8638231E-1,-4.8795324E-2,-2.500319E-1,1.5872249E-1,-8.4948085E-2,-1.3989927E-1,-2.7099997E-1,2.3138313E-1,1.0635426E-1,4.1986607E-2,-9.832487E-2,1.6378252E-2,-1.5483668E-1,-2.3590982E-1,-3.285748E-1,3.8266262E-1,2.1209937E-1,2.1590392E-1,5.2154385E-2,3.1521045E-2,2.514321E-1,2.4573503E-2,-1.0797184E-1,7.373638E-2,-1.1865789E-1,-1.1601631E-1,-1.9740696E-1,-9.143417E-2,-2.4750125E-1,-2.794297E-1,-3.5414872E-1,4.4380024E-2,-1.1408924E-2,2.2727948E-2,-9.941523E-3,-2.2907617E-2,2.4631495E-2,2.1105658E-3,2.9059067E-2,6.2966147E-3,-5.196672E-3,3.5178225E-2,-1.3331338E-2,6.0536712E-3,-2.5809467E-2,-2.9321336E-3,-1.1975554E-2,1.50738405E-2,-4.704186E-3,1.6943572E-2,-2.5795667E-2,-6.059324E-3,-1.3618061E-2,-2.2718314E-2,-1.2494168E-2,-1.5967442E-2,-3.550664E-3,-2.5509E-2,-7.650822E-3,-1.7235506E-2,-2.944961E-2,-3.8450725E-2,-3.1772595E-2],"categories":[],"categories_nodes":[],"categories_segments":[],"categories_sizes":[],"default_left":[0,0,0,0,0,0,0,0,0,0,0,0,0,0,0,0,0,0,0,0,0,0,0,0,0,0,0,0,0,0,0,0,0,0,0,0,0,0,0,0,0,0,0,0,0,0,0,0,0,0,0,0,0,0,0,0,0,0,0,0,0,0,0],"id":36,"left_children":[1,3,5,7,9,11,13,15,17,19,21,23,25,27,29,31,33,35,37,39,41,43,45,47,49,51,53,55,57,59,61,-1,-1,-1,-1,-1,-1,-1,-1,-1,-1,-1,-1,-1,-1,-1,-1,-1,-1,-1,-1,-1,-1,-1,-1,-1,-1,-1,-1,-1,-1,-1,-1],"loss_changes":[5.730298E1,1.5553188E1,1.0294891E1,1.1460867E0,3.0004644E0,1.6779461E0,7.5143433E0,2.9228497E-1,1.061362E0,3.623764E-1,1.895711E0,5.0073886E-1,1.0598631E0,3.893341E0,1.6862946E0,4.524207E-1,5.701194E-1,8.612616E-1,8.983427E-1,4.286719E-1,3.517686E-1,1.2052822E0,1.3687801E0,4.2745578E-1,8.190542E-1,3.7743616E-1,6.428375E-1,6.6320896E-1,2.7886353E0,7.4118805E-1,9.0675354E-1,0E0,0E0,0E0,0E0,0E0,0E0,0E0,0E0,0E0,0E0,0E0,0E0,0E0,0E0,0E0,0E0,0E0,0E0,0E0,0E0,0E0,0E0,0E0,0E0,0E0,0E0,0E0,0E0,0E0,0E0,0E0,0E0],"parents":[2147483647,0,0,1,1,2,2,3,3,4,4,5,5,6,6,7,7,8,8,9,9,10,10,11,11,12,12,13,13,14,14,15,15,16,16,17,17,18,18,19,19,20,20,21,21,22,22,23,23,24,24,25,25,26,26,27,27,28,28,29,29,30,30],"right_children":[2,4,6,8,10,12,14,16,18,20,22,24,26,28,30,32,34,36,38,40,42,44,46,48,50,52,54,56,58,60,62,-1,-1,-1,-1,-1,-1,-1,-1,-1,-1,-1,-1,-1,-1,-1,-1,-1,-1,-1,-1,-1,-1,-1,-1,-1,-1,-1,-1,-1,-1,-1,-1],"split_conditions":[-4.2281708E1,-1.4944827E2,-2.39E2,-1.8910641E2,-2.96E2,-1.73E2,4.6666667E-1,-1.5E0,-5.99E2,-1.47E2,-1.004E3,6.666667E-1,1.1060943E1,-1.03E2,1.8880976E1,-2.8E2,3E0,-1.15E0,-1.8E1,-2.91E2,-1.18E2,-5.2522976E1,-5.5E-1,-3.5E-1,-3.0003075E1,-8.5E2,-3E-1,3.3333334E-1,8E-1,-6.9E1,1.41E2,4.4380024E-2,-1.1408924E-2,2.2727948E-2,-9.941523E-3,-2.2907617E-2,2.4631495E-2,2.1105658E-3,2.9059067E-2,6.2966147E-3,-5.196672E-3,3.5178225E-2,-1.3331338E-2,6.0536712E-3,-2.5809467E-2,-2.9321336E-3,-1.1975554E-2,1.50738405E-2,-4.704186E-3,1.6943572E-2,-2.5795667E-2,-6.059324E-3,-1.3618061E-2,-2.2718314E-2,-1.2494168E-2,-1.5967442E-2,-3.550664E-3,-2.5509E-2,-7.650822E-3,-1.7235506E-2,-2.944961E-2,-3.8450725E-2,-3.1772595E-2],"split_indices":[0,0,1,0,2,2,5,3,1,1,1,9,0,2,0,1,7,3,2,1,1,0,3,4,0,1,4,3,4,2,1,0,0,0,0,0,0,0,0,0,0,0,0,0,0,0,0,0,0,0,0,0,0,0,0,0,0,0,0,0,0,0,0],"split_type":[0,0,0,0,0,0,0,0,0,0,0,0,0,0,0,0,0,0,0,0,0,0,0,0,0,0,0,0,0,0,0,0,0,0,0,0,0,0,0,0,0,0,0,0,0,0,0,0,0,0,0,0,0,0,0,0,0,0,0,0,0,0,0],"sum_hessian":[6.5438027E3,2.0703135E3,4.4734893E3,3.0666397E2,1.7636495E3,7.1671094E2,3.7567783E3,1.2701414E2,1.7964983E2,1.6793602E2,1.5957135E3,6.2520054E1,6.541909E2,2.3373384E3,1.41944E3,1.2229663E1,1.1478448E2,5.847525E1,1.21174576E2,1.610397E2,6.896327E0,1.1602721E2,1.4796863E3,4.4199688E1,1.8320366E1,3.441142E2,3.100767E2,1.7425937E2,2.163079E3,4.8991046E2,9.2952954E2,1.0984361E1,1.2453017E0,1.0970878E2,5.0757008E0,3.3227937E0,5.5152454E1,1.0817655E2,1.299803E1,1.1715853E2,4.3881165E1,5.5376587E0,1.3586686E0,1.0362862E2,1.2398588E1,1.9325966E2,1.2864266E3,2.6839888E1,1.73598E1,5.90059E0,1.2419775E1,9.286705E1,2.5124716E2,2.1825862E2,9.181806E1,7.765421E1,9.660516E1,2.0706895E3,9.238974E1,6.1966003E1,4.2794446E2,5.0175644E2,4.2777307E2],"tree_param":{"num_deleted":"0","num_feature":"11","num_nodes":"63","size_leaf_vector":"1"}},{"base_weights":[-6.3382715E-2,2.9059494E-1,-5.642778E-1,-5.3927386E-1,6.43156E-1,3.1092677E-1,-5.744034E-1,-5.7534773E-2,3.5419154E-1,6.807514E-1,-5.6415975E-2,6.7040704E-2,-5.2645154E-2,-1.8833156E-1,-5.7509433E-2,-5.3462125E-2,6.9126874E-2,-5.572862E-2,6.9067754E-2,4.3768194E-2,-4.6845444E-2],"categories":[],"categories_nodes":[],"categories_segments":[],"categories_sizes":[],"default_left":[0,0,0,0,0,0,0,0,0,0,0,0,0,0,0,0,0,0,0,0,0],"id":37,"left_children":[1,3,5,7,9,11,13,-1,15,17,-1,-1,-1,19,-1,-1,-1,-1,-1,-1,-1],"loss_changes":[1.3085664E3,1.2655901E3,2.7259949E1,4.1779785E1,1.381637E2,1.1069143E1,6.976929E-1,0E0,1.5553123E1,3.656714E1,0E0,0E0,0E0,1.4123355E0,0E0,0E0,0E0,0E0,0E0,0E0,0E0],"parents":[2147483647,0,0,1,1,2,2,3,3,4,4,5,5,6,6,8,8,9,9,13,13],"right_children":[2,4,6,8,10,12,14,-1,16,18,-1,-1,-1,20,-1,-1,-1,-1,-1,-1,-1],"split_conditions":[1.0769333E1,-8.69299E0,-2.1492542E2,1.5827814E2,1.6545262E2,1.4665834E1,-2.0123996E2,-5.7534773E-2,-2.765526E1,-2.1492542E2,-5.6415975E-2,6.7040704E-2,-5.2645154E-2,1.1215495E1,-5.7509433E-2,-5.3462125E-2,6.9126874E-2,-5.572862E-2,6.9067754E-2,4.3768194E-2,-4.6845444E-2],"split_indices":[8,8,0,0,0,8,0,0,8,0,0,0,0,8,0,0,0,0,0,0,0],"split_type":[0,0,0,0,0,0,0,0,0,0,0,0,0,0,0,0,0,0,0,0,0],"sum_hessian":[7.37836E3,4.323444E3,3.0549158E3,1.2889485E3,3.0344956E3,3.4599537E1,3.0203162E3,1.2392688E3,4.9679676E1,2.943279E3,9.1216484E1,2.4346964E1,1.0252572E1,5.884676E0,3.0144316E3,1.34990425E1,3.6180634E1,2.2971949E1,2.9203071E3,1.6453078E0,4.239368E0],"tree_param":{"num_deleted":"0","num_feature":"11","num_nodes":"21","size_leaf_vector":"1"}},{"base_weights":[2.1388684E-1,-5.5734444E-1,6.4568347E-1,-5.7179105E-1,5.2837014E-1,1.7924187E-1,6.59855E-2,-5.7308834E-2,-1.0003529E-1,-4.5107566E-2,6.3803665E-2,-5.7070773E-2,6.5567695E-2,-4.863676E-2,4.9860843E-2],"categories":[],"categories_nodes":[],"categories_segments":[],"categories_sizes":[],"default_left":[0,0,0,0,0,0,0,0,0,0,0,0,0,0,0],"id":38,"left_children":[1,3,5,7,9,11,-1,-1,13,-1,-1,-1,-1,-1,-1],"loss_changes":[2.638937E3,4.491626E1,3.3460938E1,1.6608276E0,4.3555775E0,5.4384422E1,0E0,0E0,2.3033555E0,0E0,0E0,0E0,0E0,0E0,0E0],"parents":[2147483647,0,0,1,1,2,2,3,3,4,4,5,5,8,8],"right_children":[2,4,6,8,10,12,-1,-1,14,-1,-1,-1,-1,-1,-1],"split_conditions":[8.366779E0,2.3434172E2,-1.5453378E2,2.0906366E2,-1.1617466E1,1.4665834E1,6.59855E-2,-5.7308834E-2,-1.0227523E1,-4.5107566E-2,6.3803665E-2,-5.7070773E-2,6.5567695E-2,-4.863676E-2,4.9860843E-2],"split_indices":[8,0,0,0,8,8,0,0,8,0,0,0,0,0,0],"split_type":[0,0,0,0,0,0,0,0,0,0,0,0,0,0,0],"sum_hessian":[7.922297E3,2.8434048E3,5.078892E3,2.8065342E3,3.68706E1,1.5016115E2,4.928731E3,2.7986235E3,7.9108E0,3.3991563E0,3.3471443E1,5.825885E1,9.19023E1,4.9219747E0,2.9888256E0],"tree_param":{"num_deleted":"0","num_feature":"11","num_nodes":"15","size_leaf_vector":"1"}},{"base_weights":[-1.750758E-1,6.327035E-1,-5.591673E-1,6.5256596E-1,7.2940565E-3,2.4343598E-1,-5.6489725E-2,6.534546E-2,3.8584667E-1,6.357597E-2,-5.6325532E-2,6.3188255E-2,-5.2276235E-2,5.6816865E-2,-3.3986498E-2],"categories":[],"categories_nodes":[],"categories_segments":[],"categories_sizes":[],"default_left":[0,0,0,0,0,0,0,0,0,0,0,0,0,0,0],"id":39,"left_children":[1,3,5,7,9,11,-1,-1,13,-1,-1,-1,-1,-1,-1],"loss_changes":[1.9409745E3,2.504004E1,1.9635132E1,2.1105957E-1,2.2973532E1,9.482978E0,0E0,0E0,1.3747636E0,0E0,0E0,0E0,0E0,0E0,0E0],"parents":[2147483647,0,0,1,1,2,2,3,3,4,4,5,5,8,8],"right_children":[2,4,6,8,10,12,-1,-1,14,-1,-1,-1,-1,-1,-1],"split_conditions":[-7.940956E0,1.4773038E2,-2.37577E2,1.4314052E2,-2.765526E1,-3.5513453E0,-5.6489725E-2,6.534546E-2,-2.765526E1,6.357597E-2,-5.6325532E-2,6.3188255E-2,-5.2276235E-2,5.6816865E-2,-3.3986498E-2],"split_indices":[8,0,0,0,8,8,0,0,8,0,0,0,0,0,0],"split_type":[0,0,0,0,0,0,0,0,0,0,0,0,0,0,0],"sum_hessian":[6.253797E3,2.015136E3,4.2386606E3,1.9530648E3,6.207107E1,2.9752083E1,4.2089087E3,1.945134E3,7.930804E0,2.9482035E1,3.2589035E1,1.985919E1,9.892893E0,6.511895E0,1.4189087E0],"tree_param":{"num_deleted":"0","num_feature":"11","num_nodes":"15","size_leaf_vector":"1"}},{"base_weights":[-6.0616944E-2,2.7365288E-1,-5.562211E-1,-5.3676164E-1,6.2651056E-1,3.4896067E-1,-5.661502E-1,-5.725334E-2,3.601519E-1,6.618439E-1,-5.563423E-2,6.5299995E-2,-5.0407488E-2,-1.3630396E-1,-5.6705605E-2,-5.2946504E-2,6.701367E-2,-5.5017658E-2,6.7132324E-2,4.619081E-2,-4.5981847E-2],"categories":[],"categories_nodes":[],"categories_segments":[],"categories_sizes":[],"default_left":[0,0,0,0,0,0,0,0,0,0,0,0,0,0,0,0,0,0,0,0,0],"id":40,"left_children":[1,3,5,7,9,11,13,-1,15,17,-1,-1,-1,19,-1,-1,-1,-1,-1,-1,-1],"loss_changes":[1.1516038E3,1.1875071E3,2.5362366E1,4.0626617E1,1.2126587E2,8.3688135E0,1.0013428E0,0E0,1.3848817E1,3.2645264E1,0E0,0E0,0E0,1.5945592E0,0E0,0E0,0E0,0E0,0E0,0E0,0E0],"parents":[2147483647,0,0,1,1,2,2,3,3,4,4,5,5,6,6,8,8,9,9,13,13],"right_children":[2,4,6,8,10,12,14,-1,16,18,-1,-1,-1,20,-1,-1,-1,-1,-1,-1,-1],"split_conditions":[1.0769333E1,-8.69299E0,-2.1492542E2,1.5827814E2,1.6545262E2,1.4665834E1,-2.0123996E2,-5.725334E-2,-2.765526E1,-2.1492542E2,-5.563423E-2,6.5299995E-2,-5.0407488E-2,1.1215495E1,-5.6705605E-2,-5.2946504E-2,6.701367E-2,-5.5017658E-2,6.7132324E-2,4.619081E-2,-4.5981847E-2],"split_indices":[8,8,0,0,0,8,0,0,8,0,0,0,0,8,0,0,0,0,0,0,0],"split_type":[0,0,0,0,0,0,0,0,0,0,0,0,0,0,0,0,0,0,0,0,0],"sum_hessian":[6.94946E3,4.1505137E3,2.7989463E3,1.2588253E3,2.8916882E3,2.999849E1,2.7689478E3,1.2108928E3,4.7932487E1,2.8082427E3,8.344548E1,2.2288805E1,7.709686E0,6.141856E0,2.762806E3,1.2203103E1,3.5729385E1,2.1350466E1,2.786892E3,2.0055687E0,4.136287E0],"tree_param":{"num_deleted":"0","num_feature":"11","num_nodes":"21","size_leaf_vector":"1"}},{"base_weights":[2.0350973E-1,-5.5084723E-1,6.299346E-1,-5.64423E-1,-1.5616672E-1,3.1106347E-1,6.40269E-1,-5.6595232E-2,-4.546163E-1,-5.6031745E-2,6.2160034E-2,-4.4548848E-1,6.1998266E-1,5.4172975E-1,6.4315185E-2,-5.4391783E-1,3.0021453E-1,-5.241039E-1,3.9095905E-2,5.3968835E-3,6.295562E-2,-5.254596E-2,6.393336E-2,-5.548308E-2,-7.6027326E-3,4.7142014E-2,-1.25869755E-2,-5.4359883E-2,-2.0749953E-2,-4.2912986E-2,4.8782285E-2],"categories":[],"categories_nodes":[],"categories_segments":[],"categories_sizes":[],"default_left":[0,0,0,0,0,0,0,0,0,0,0,0,0,0,0,0,0,0,0,0,0,0,0,0,0,0,0,0,0,0,0],"id":41,"left_children":[1,3,5,7,9,11,13,-1,15,-1,-1,17,19,21,-1,23,25,27,29,-1,-1,-1,-1,-1,-1,-1,-1,-1,-1,-1,-1],"loss_changes":[2.4042656E3,1.4375244E1,1.5535156E1,1.8084717E-1,2.899817E1,3.576162E1,9.6520996E-1,0E0,2.9218235E0,0E0,0E0,1.7197094E0,5.5249023E-1,1.4686539E1,0E0,1.4648533E-1,4.2215556E-1,1.2450695E-1,1.7130023E0,0E0,0E0,0E0,0E0,0E0,0E0,0E0,0E0,0E0,0E0,0E0,0E0],"parents":[2147483647,0,0,1,1,2,2,3,3,4,4,5,5,6,6,8,8,11,11,12,12,13,13,15,15,16,16,17,17,18,18],"right_children":[2,4,6,8,10,12,14,-1,16,-1,-1,18,20,22,-1,24,26,28,30,-1,-1,-1,-1,-1,-1,-1,-1,-1,-1,-1,-1],"split_conditions":[8.366779E0,4.23E2,1.0769333E1,7.2958226E0,4.488931E0,1E1,-3.19E2,-5.6595232E-2,5.6E1,-5.6031745E-2,6.2160034E-2,-3.9E1,-1.6666667E-1,1.3670315E1,6.4315185E-2,4.23E2,-7.5E-1,4.6666667E-1,5E-2,5.3968835E-3,6.295562E-2,-5.254596E-2,6.393336E-2,-5.548308E-2,-7.6027326E-3,4.7142014E-2,-1.25869755E-2,-5.4359883E-2,-2.0749953E-2,-4.2912986E-2,4.8782285E-2],"split_indices":[8,2,8,8,8,1,2,0,2,0,0,2,5,8,0,1,4,5,5,0,0,0,0,0,0,0,0,0,0,0,0],"split_type":[0,0,0,0,0,0,0,0,0,0,0,0,0,0,0,0,0,0,0,0,0,0,0,0,0,0,0,0,0,0,0],"sum_hessian":[7.472093E3,2.6983494E3,4.7737437E3,2.6082048E3,9.014438E1,1.5083305E2,4.6229106E3,2.5682817E3,3.992319E1,5.950395E1,3.0640429E1,4.3603863E1,1.07229195E2,1.3677222E2,4.486138E3,3.594954E1,3.9736521E0,3.744716E1,6.156704E0,1.8938942E0,1.053353E2,1.1093499E1,1.2567871E2,3.4948593E1,1.0009468E0,2.7587523E0,1.2148998E0,3.4599712E1,2.8474445E0,3.0342634E0,3.1224406E0],"tree_param":{"num_deleted":"0","num_feature":"11","num_nodes":"31","size_leaf_vector":"1"}},{"base_weights":[-1.7315061E-1,-6.0019244E-2,-2.3912548E-1,1.420591E-1,-8.931248E-2,-2.1446134E-1,-3.1874666E-1,1.6990128E-1,1.8249363E-2,-4.5735706E-2,-1.4120878E-1,-1.0638586E-1,-2.278662E-1,-2.0371427E-1,-3.2909065E-1,2.1935765E-1,1.293634E-1,-8.008782E-2,1.464996E-1,5.770777E-2,-6.294774E-2,-1.9260655E-1,-1.01169534E-1,-2.727867E-2,-1.3589899E-1,-2.9954943E-1,-2.0608671E-1,-2.1482255E-1,2.5536759E-2,-3.4721005E-1,-2.755722E-1,2.507934E-2,7.742381E-3,1.4986043E-2,-1.1470179E-2,1.8760648E-2,-1.4272255E-2,9.281521E-3,3.6074944E-2,4.654012E-3,2.4029847E-2,3.7551974E-3,-7.913417E-3,-2.0242672E-2,6.627694E-3,8.414843E-5,-1.2319797E-2,2.8969606E-2,-4.6066786E-3,-3.4164377E-3,-1.4899157E-2,-1.599792E-2,-3.1157902E-2,-1.3855854E-2,-2.2110531E-2,-2.4998982E-2,-7.5049335E-3,-1.751778E-2,-3.5576683E-2,1.1767105E-2,-2.7812256E-2],"categories":[],"categories_nodes":[],"categories_segments":[],"categories_sizes":[],"default_left":[0,0,0,0,0,0,0,0,0,0,0,0,0,0,0,0,0,0,0,0,0,0,0,0,0,0,0,0,0,0,0,0,0,0,0,0,0,0,0,0,0,0,0,0,0,0,0,0,0,0,0,0,0,0,0,0,0,0,0,0,0],"id":42,"left_children":[1,3,5,7,9,11,13,15,17,19,21,23,25,27,29,31,33,35,37,39,41,43,45,47,49,51,53,55,-1,57,59,-1,-1,-1,-1,-1,-1,-1,-1,-1,-1,-1,-1,-1,-1,-1,-1,-1,-1,-1,-1,-1,-1,-1,-1,-1,-1,-1,-1,-1,-1],"loss_changes":[4.328891E1,1.2671268E1,7.127548E0,9.3151283E-1,4.218689E0,4.033264E0,9.6170807E-1,4.1515827E-1,6.5363914E-1,1.8144445E0,1.734438E0,7.222097E-1,3.8269806E0,4.3200088E-1,6.7196655E-1,4.1880083E-1,6.375866E-1,5.2064437E-1,2.2464824E-1,2.857249E-1,1.4221869E0,9.593878E-1,1.0813847E0,5.2391183E-1,2.9619074E-1,9.2097473E-1,1.9100723E0,3.3884215E-1,0E0,8.0257416E-1,2.3839188E-1,0E0,0E0,0E0,0E0,0E0,0E0,0E0,0E0,0E0,0E0,0E0,0E0,0E0,0E0,0E0,0E0,0E0,0E0,0E0,0E0,0E0,0E0,0E0,0E0,0E0,0E0,0E0,0E0,0E0,0E0],"parents":[2147483647,0,0,1,1,2,2,3,3,4,4,5,5,6,6,7,7,8,8,9,9,10,10,11,11,12,12,13,13,14,14,15,15,16,16,17,17,18,18,19,19,20,20,21,21,22,22,23,23,24,24,25,25,26,26,27,27,29,29,30,30],"right_children":[2,4,6,8,10,12,14,16,18,20,22,24,26,28,30,32,34,36,38,40,42,44,46,48,50,52,54,56,-1,58,60,-1,-1,-1,-1,-1,-1,-1,-1,-1,-1,-1,-1,-1,-1,-1,-1,-1,-1,-1,-1,-1,-1,-1,-1,-1,-1,-1,-1,-1,-1],"split_conditions":[-3.2479366E1,-1.4944827E2,1.25E0,-1.38E2,-7.1E1,-7.9E1,-2.39E2,-6.39E2,2.5E-1,-3.19E2,-4.6666667E-1,-1.3799998E1,-1.25E0,1.5827814E2,-3.5E-1,6.666667E-1,-1.5453378E2,-1.8910641E2,8E0,-1.71E2,-1.004E3,1.13E2,-8.6E1,-3.5E-1,-1.55E0,-4.63E2,-2.21E2,1.9E0,2.5536759E-2,-7.3E1,-2.28E2,2.507934E-2,7.742381E-3,1.4986043E-2,-1.1470179E-2,1.8760648E-2,-1.4272255E-2,9.281521E-3,3.6074944E-2,4.654012E-3,2.4029847E-2,3.7551974E-3,-7.913417E-3,-2.0242672E-2,6.627694E-3,8.414843E-5,-1.2319797E-2,2.8969606E-2,-4.6066786E-3,-3.4164377E-3,-1.4899157E-2,-1.599792E-2,-3.1157902E-2,-1.3855854E-2,-2.2110531E-2,-2.4998982E-2,-7.5049335E-3,-1.751778E-2,-3.5576683E-2,1.1767105E-2,-2.7812256E-2],"split_indices":[0,0,3,1,1,2,1,1,4,2,4,0,4,0,4,9,0,0,2,1,1,2,2,5,4,1,1,3,0,2,2,0,0,0,0,0,0,0,0,0,0,0,0,0,0,0,0,0,0,0,0,0,0,0,0,0,0,0,0,0,0],"split_type":[0,0,0,0,0,0,0,0,0,0,0,0,0,0,0,0,0,0,0,0,0,0,0,0,0,0,0,0,0,0,0,0,0,0,0,0,0,0,0,0,0,0,0,0,0,0,0,0,0,0,0,0,0,0,0,0,0,0,0,0,0],"sum_hessian":[5.8007485E3,2.137444E3,3.6633044E3,2.7012778E2,1.8673164E3,2.79973E3,8.635745E2,2.2023036E2,4.9897415E1,1.01604E3,8.512765E2,3.099249E2,2.4898052E3,7.29552E1,7.906193E2,9.7215675E1,1.2301469E2,2.845488E1,2.1442535E1,1.4460692E2,8.7143304E2,3.7109598E2,4.801805E2,8.473229E1,2.2519261E2,5.772237E2,1.9125814E3,7.175112E1,1.20408E0,5.8654767E2,2.0407167E2,7.896042E1,1.8255255E1,1.1384017E2,9.174514E0,5.017094E0,2.3437784E1,1.8292267E1,3.1502678E0,1.3745476E2,7.152151E0,1.2070009E2,7.50733E2,3.5774384E2,1.3352134E1,8.544709E1,3.9473343E2,3.9344802E0,8.0797806E1,2.6087961E1,1.9910466E2,4.6937874E1,5.302858E2,3.4983633E2,1.5627451E3,5.6697388E1,1.5053738E1,2.8809547E1,5.577381E2,1.0240862E0,2.0304759E2],"tree_param":{"num_deleted":"0","num_feature":"11","num_nodes":"61","size_leaf_vector":"1"}},{"base_weights":[-6.0487766E-2,2.6920778E-1,-5.4919875E-1,-5.28039E-1,6.0714513E-1,3.2528844E-1,-5.5946404E-1,-5.6499124E-2,3.5020146E-1,6.419256E-1,-5.4994386E-2,6.341317E-2,-4.999907E-2,-1.7680068E-1,-5.60199E-2,-5.2070737E-2,6.480382E-2,-5.4180145E-2,6.513787E-2,4.0998682E-2,-4.4799305E-2],"categories":[],"categories_nodes":[],"categories_segments":[],"categories_sizes":[],"default_left":[0,0,0,0,0,0,0,0,0,0,0,0,0,0,0,0,0,0,0,0,0],"id":43,"left_children":[1,3,5,7,9,11,13,-1,15,17,-1,-1,-1,19,-1,-1,-1,-1,-1,-1,-1],"loss_changes":[1.0395333E3,1.0383248E3,2.3513062E1,3.7436737E1,1.0926434E2,8.164203E0,6.234741E-1,0E0,1.2515282E1,2.9757446E1,0E0,0E0,0E0,1.1998594E0,0E0,0E0,0E0,0E0,0E0,0E0,0E0],"parents":[2147483647,0,0,1,1,2,2,3,3,4,4,5,5,6,6,8,8,9,9,13,13],"right_children":[2,4,6,8,10,12,14,-1,16,18,-1,-1,-1,20,-1,-1,-1,-1,-1,-1,-1],"split_conditions":[1.0769333E1,-8.69299E0,-2.1492542E2,1.5827814E2,1.6545262E2,1.4665834E1,-2.0123996E2,-5.6499124E-2,-2.765526E1,-2.1492542E2,-5.4994386E-2,6.341317E-2,-4.999907E-2,1.1215495E1,-5.60199E-2,-5.2070737E-2,6.480382E-2,-5.4180145E-2,6.513787E-2,4.0998682E-2,-4.4799305E-2],"split_indices":[8,8,0,0,0,8,0,0,8,0,0,0,0,8,0,0,0,0,0,0,0],"split_type":[0,0,0,0,0,0,0,0,0,0,0,0,0,0,0,0,0,0,0,0,0],"sum_hessian":[6.449769E3,3.8517441E3,2.598025E3,1.1464731E3,2.705271E3,2.978736E1,2.5682375E3,1.1005249E3,4.594825E1,2.6267595E3,7.851138E1,2.184423E1,7.943127E0,5.385807E0,2.5628518E3,1.1518508E1,3.442974E1,2.0364693E1,2.6063948E3,1.54059E0,3.8452172E0],"tree_param":{"num_deleted":"0","num_feature":"11","num_nodes":"21","size_leaf_vector":"1"}},{"base_weights":[2.0106357E-1,8.0102436E-2,2.588346E-1,1.842148E-2,1.5038273E-1,2.3269485E-1,3.4889287E-1,-1.3091649E-1,4.7447253E-2,2.246432E-3,1.6251247E-1,1.510672E-1,2.5200891E-1,3.1927773E-1,4.2942095E-1,-2.0694178E-1,-9.187439E-2,-8.1702545E-3,6.9349274E-2,3.220399E-2,-2.3869768E-1,1.3296871E-1,1.9699028E-1,1.16546154E-1,1.8574215E-1,2.2569898E-1,2.9778683E-1,2.8306335E-1,3.5405654E-1,3.974083E-1,4.8576856E-1,-2.217695E-2,1.8929373E-2,-7.490478E-3,-3.7189733E-2,-1.0516925E-2,8.0484845E-4,1.8797525E-3,9.853029E-3,1.217531E-2,-3.367209E-3,6.444823E-3,-3.580534E-2,1.5405759E-2,3.6501095E-3,9.601179E-3,2.2075659E-2,1.817092E-2,8.245472E-3,3.18394E-2,1.7912164E-2,2.3932599E-2,1.6788354E-2,2.2507729E-2,3.1098226E-2,2.5775254E-2,3.7779428E-2,3.652472E-2,2.5123501E-2,4.0943768E-2,2.2991005E-2,1.1239719E-2,4.9088884E-2],"categories":[],"categories_nodes":[],"categories_segments":[],"categories_sizes":[],"default_left":[0,0,0,0,0,0,0,0,0,0,0,0,0,0,0,0,0,0,0,0,0,0,0,0,0,0,0,0,0,0,0,0,0,0,0,0,0,0,0,0,0,0,0,0,0,0,0,0,0,0,0,0,0,0,0,0,0,0,0,0,0,0,0],"id":44,"left_children":[1,3,5,7,9,11,13,15,17,19,21,23,25,27,29,31,33,35,37,39,41,43,45,47,49,51,53,55,57,59,61,-1,-1,-1,-1,-1,-1,-1,-1,-1,-1,-1,-1,-1,-1,-1,-1,-1,-1,-1,-1,-1,-1,-1,-1,-1,-1,-1,-1,-1,-1,-1,-1],"loss_changes":[4.8384216E1,9.709186E0,1.0953491E1,5.183208E0,1.8810368E0,5.6942596E0,2.3728943E0,5.58666E-1,1.2195613E0,5.8701354E-1,9.596062E-1,8.14106E-1,3.47229E0,8.738556E-1,3.1218338E-1,4.252634E-1,5.917244E-1,4.4705254E-1,1.0574183E0,4.3040633E-1,3.4851414E-1,1.0609417E0,1.045618E0,7.68229E-1,2.4739361E-1,1.4333725E0,9.5604706E-1,8.230152E-1,3.5758972E-1,2.7683067E-1,1.3022804E-1,0E0,0E0,0E0,0E0,0E0,0E0,0E0,0E0,0E0,0E0,0E0,0E0,0E0,0E0,0E0,0E0,0E0,0E0,0E0,0E0,0E0,0E0,0E0,0E0,0E0,0E0,0E0,0E0,0E0,0E0,0E0,0E0],"parents":[2147483647,0,0,1,1,2,2,3,3,4,4,5,5,6,6,7,7,8,8,9,9,10,10,11,11,12,12,13,13,14,14,15,15,16,16,17,17,18,18,19,19,20,20,21,21,22,22,23,23,24,24,25,25,26,26,27,27,28,28,29,29,30,30],"right_children":[2,4,6,8,10,12,14,16,18,20,22,24,26,28,30,32,34,36,38,40,42,44,46,48,50,52,54,56,58,60,62,-1,-1,-1,-1,-1,-1,-1,-1,-1,-1,-1,-1,-1,-1,-1,-1,-1,-1,-1,-1,-1,-1,-1,-1,-1,-1,-1,-1,-1,-1,-1,-1],"split_conditions":[-3.2479366E1,-8.5E1,7.951213E1,-1.4944827E2,-1.2732833E2,-1.76E2,1.4773038E2,-2.0123996E2,-1.73E2,1.3E1,-5.708688E1,2E0,6E-1,4.6666667E-1,1.941139E2,1.4E0,1.1333333E0,0E0,-5.67E2,-1.5453378E2,5.5E1,2.5E-1,-6.1E1,-6.666667E-1,-3.19E2,5.2E2,-3.5E1,2.76E2,8E2,1.367E3,-2.7E0,-2.217695E-2,1.8929373E-2,-7.490478E-3,-3.7189733E-2,-1.0516925E-2,8.0484845E-4,1.8797525E-3,9.853029E-3,1.217531E-2,-3.367209E-3,6.444823E-3,-3.580534E-2,1.5405759E-2,3.6501095E-3,9.601179E-3,2.2075659E-2,1.817092E-2,8.245472E-3,3.18394E-2,1.7912164E-2,2.3932599E-2,1.6788354E-2,2.2507729E-2,3.1098226E-2,2.5775254E-2,3.7779428E-2,3.652472E-2,2.5123501E-2,4.0943768E-2,2.2991005E-2,1.1239719E-2,4.9088884E-2],"split_indices":[0,1,0,0,0,1,0,0,2,2,0,6,5,5,0,4,4,9,1,0,1,4,2,4,2,1,2,2,1,1,4,0,0,0,0,0,0,0,0,0,0,0,0,0,0,0,0,0,0,0,0,0,0,0,0,0,0,0,0,0,0,0,0],"split_type":[0,0,0,0,0,0,0,0,0,0,0,0,0,0,0,0,0,0,0,0,0,0,0,0,0,0,0,0,0,0,0,0,0,0,0,0,0,0,0,0,0,0,0,0,0,0,0,0,0,0,0,0,0,0,0,0,0,0,0,0,0,0,0],"sum_hessian":[6.9258213E3,2.239382E3,4.686439E3,1.1933286E3,1.0460536E3,3.6349617E3,1.0514774E3,1.936234E2,9.9970526E2,7.926028E1,9.667933E2,6.971976E2,2.9377642E3,7.7238776E2,2.7908963E2,6.423683E1,1.2938657E2,2.826294E2,7.1707587E2,7.126585E1,7.9944296E0,5.2326666E2,4.4352658E2,3.515596E2,3.4563797E2,1.8693325E3,1.0684316E3,3.828615E2,3.8952625E2,1.8311165E2,9.5978E1,6.234413E1,1.8927017E0,1.2318873E2,6.19784E0,3.9701748E1,2.4292764E2,2.630409E2,4.5403497E2,2.9846111E1,4.141973E1,2.3883653E0,5.6060643E0,4.289061E2,9.4360596E1,8.5460625E1,3.5806595E2,1.19264694E2,2.322949E2,1.4191808E1,3.3144617E2,1.5102333E3,3.5909918E2,1.668898E2,9.015419E2,3.0507147E2,7.779005E1,3.489913E2,4.0534927E1,1.694945E2,1.3617141E1,1.6088897E0,9.43691E1],"tree_param":{"num_deleted":"0","num_feature":"11","num_nodes":"63","size_leaf_vector":"1"}},{"base_weights":[-1.6550945E-1,6.152195E-1,-5.50595E-1,6.334688E-1,3.058739E-2,1.5716553E-1,-5.5527862E-2,6.344282E-2,3.598817E-1,6.199321E-2,-5.4638978E-2,5.958254E-2,-5.1358916E-2,5.5074263E-2,-3.3820048E-2],"categories":[],"categories_nodes":[],"categories_segments":[],"categories_sizes":[],"default_left":[0,0,0,0,0,0,0,0,0,0,0,0,0,0,0],"id":45,"left_children":[1,3,5,7,9,11,-1,-1,13,-1,-1,-1,-1,-1,-1],"loss_changes":[1.6968187E3,1.9871582E1,1.2615601E1,2.4621582E-1,1.988585E1,7.845839E0,0E0,0E0,1.3358914E0,0E0,0E0,0E0,0E0,0E0,0E0],"parents":[2147483647,0,0,1,1,2,2,3,3,4,4,5,5,8,8],"right_children":[2,4,6,8,10,12,-1,-1,14,-1,-1,-1,-1,-1,-1],"split_conditions":[-7.940956E0,1.4773038E2,-2.37577E2,1.4314052E2,-2.765526E1,-3.5513453E0,-5.5527862E-2,6.344282E-2,-2.765526E1,6.199321E-2,-5.4638978E-2,5.958254E-2,-5.1358916E-2,5.5074263E-2,-3.3820048E-2],"split_indices":[8,0,0,0,8,8,0,0,8,0,0,0,0,0,0],"split_type":[0,0,0,0,0,0,0,0,0,0,0,0,0,0,0],"sum_hessian":[5.641756E3,1.8633569E3,3.7783992E3,1.806872E3,5.6485046E1,2.4625359E1,3.7537737E3,1.7992434E3,7.6284833E0,2.7906212E1,2.8578833E1,1.495609E1,9.66927E0,6.156353E0,1.4721302E0],"tree_param":{"num_deleted":"0","num_feature":"11","num_nodes":"15","size_leaf_vector":"1"}},{"base_weights":[-5.695858E-2,2.627174E-1,-5.4403055E-1,-5.264967E-1,6.0096765E-1,3.2890186E-1,-5.549914E-1,-5.6203056E-2,3.2875538E-1,6.3280624E-1,-5.4416694E-2,6.2480252E-2,-4.963211E-2,-1.2763381E-1,-5.5593934E-2,-5.188195E-2,6.3689224E-2,-5.3572055E-2,6.418168E-2,4.3713767E-2,-4.4401683E-2],"categories":[],"categories_nodes":[],"categories_segments":[],"categories_sizes":[],"default_left":[0,0,0,0,0,0,0,0,0,0,0,0,0,0,0,0,0,0,0,0,0],"id":46,"left_children":[1,3,5,7,9,11,13,-1,15,17,-1,-1,-1,19,-1,-1,-1,-1,-1,-1,-1],"loss_changes":[9.596529E2,9.936915E2,2.354956E1,3.412845E1,9.5330505E1,7.8584695E0,9.061279E-1,0E0,1.213147E1,2.7037415E1,0E0,0E0,0E0,1.379911E0,0E0,0E0,0E0,0E0,0E0,0E0,0E0],"parents":[2147483647,0,0,1,1,2,2,3,3,4,4,5,5,6,6,8,8,9,9,13,13],"right_children":[2,4,6,8,10,12,14,-1,16,18,-1,-1,-1,20,-1,-1,-1,-1,-1,-1,-1],"split_conditions":[1.0769333E1,-8.69299E0,-2.1492542E2,1.5827814E2,1.6545262E2,1.4665834E1,-2.0123996E2,-5.6203056E-2,-2.765526E1,-2.1492542E2,-5.4416694E-2,6.2480252E-2,-4.963211E-2,1.1215495E1,-5.5593934E-2,-5.188195E-2,6.3689224E-2,-5.3572055E-2,6.418168E-2,4.3713767E-2,-4.4401683E-2],"split_indices":[8,8,0,0,0,8,0,0,8,0,0,0,0,8,0,0,0,0,0,0,0],"split_type":[0,0,0,0,0,0,0,0,0,0,0,0,0,0,0,0,0,0,0,0,0],"sum_hessian":[6.16135E3,3.720177E3,2.4411729E3,1.1159222E3,2.6042546E3,2.9912619E1,2.4112603E3,1.0717368E3,4.4185436E1,2.5342417E3,7.001302E1,2.2196482E1,7.7161374E0,5.636373E0,2.405624E3,1.1598462E1,3.258697E1,1.8944597E1,2.515297E3,1.8867271E0,3.749646E0],"tree_param":{"num_deleted":"0","num_feature":"11","num_nodes":"21","size_leaf_vector":"1"}},{"base_weights":[1.8806353E-1,-5.443305E-1,6.0621166E-1,-5.5947512E-2,3.858533E-1,1.711008E-1,6.1966468E-2,-5.027761E-2,5.9748925E-2,-5.498845E-2,6.2229495E-2],"categories":[],"categories_nodes":[],"categories_segments":[],"categories_sizes":[],"default_left":[0,0,0,0,0,0,0,0,0,0,0],"id":47,"left_children":[1,3,5,-1,7,9,-1,-1,-1,-1,-1],"loss_changes":[2.075768E3,3.4920288E1,2.5148926E1,0E0,7.834088E0,4.2884556E1,0E0,0E0,0E0,0E0,0E0],"parents":[2147483647,0,0,1,1,2,2,4,4,5,5],"right_children":[2,4,6,-1,8,10,-1,-1,-1,-1,-1],"split_conditions":[8.366779E0,2.0906366E2,-1.5453378E2,-5.5947512E-2,-1.0227523E1,1.4665834E1,6.1966468E-2,-5.027761E-2,5.9748925E-2,-5.498845E-2,6.2229495E-2],"split_indices":[8,0,0,0,8,8,0,0,0,0,0],"split_type":[0,0,0,0,0,0,0,0,0,0,0],"sum_hessian":[6.7759595E3,2.462516E3,4.3134434E3,2.4234573E3,3.905874E1,1.2977711E2,4.183666E3,7.248337E0,3.1810404E1,4.9869488E1,7.990763E1],"tree_param":{"num_deleted":"0","num_feature":"11","num_nodes":"11","size_leaf_vector":"1"}},{"base_weights":[-1.6251598E-1,-5.4738853E-2,-2.2603637E-1,1.4194503E-1,-8.340678E-2,-2.0096782E-1,-3.0813476E-1,2.2638987E-1,7.969554E-2,2.5742417E-2,-9.97445E-2,-2.7433586E-1,-1.7989148E-1,-3.2210234E-1,-2.0529905E-1,3.8238063E-1,2.0679182E-1,1.17733195E-1,-3.297148E-2,1.6288486E-1,-6.017632E-3,2.0167734E-2,-1.08259276E-1,-1.14260696E-1,-2.8799245E-1,-1.6873837E-1,-2.9145485E-1,-3.0003947E-1,-3.7956998E-1,-4.2723943E-2,-2.309983E-1,4.4530816E-2,-1.0010462E-2,2.224198E-2,-1.3706947E-2,-1.8661661E-2,1.2945563E-2,-9.913648E-3,1.4339578E-2,1.17239775E-2,3.820285E-2,3.2967478E-3,-6.445318E-3,7.757168E-5,1.7213175E-2,-6.332522E-3,-1.2960287E-2,-2.4080833E-3,-3.3858445E-2,-1.2793906E-2,-2.9915858E-2,-8.407086E-4,-1.752578E-2,-1.5516922E-2,-3.088213E-2,-3.0578753E-2,-1.2115214E-2,-1.4254528E-2,-3.879748E-2,-2.2772621E-2,1.4052004E-2,-7.9843905E-3,-2.5224108E-2],"categories":[],"categories_nodes":[],"categories_segments":[],"categories_sizes":[],"default_left":[0,0,0,0,0,0,0,0,0,0,0,0,0,0,0,0,0,0,0,0,0,0,0,0,0,0,0,0,0,0,0,0,0,0,0,0,0,0,0,0,0,0,0,0,0,0,0,0,0,0,0,0,0,0,0,0,0,0,0,0,0,0,0],"id":48,"left_children":[1,3,5,7,9,11,13,15,17,19,21,23,25,27,29,31,33,35,37,39,41,43,45,47,49,51,53,55,57,59,61,-1,-1,-1,-1,-1,-1,-1,-1,-1,-1,-1,-1,-1,-1,-1,-1,-1,-1,-1,-1,-1,-1,-1,-1,-1,-1,-1,-1,-1,-1,-1,-1],"loss_changes":[3.5542862E1,1.0878307E1,6.6625824E0,1.2726498E0,3.003149E0,3.8256454E0,1.0289993E0,2.3779392E-1,6.162326E-1,9.586421E-1,1.4967413E0,1.1854477E0,2.3766785E0,7.349701E-1,3.8257623E-1,3.6006212E-1,5.3701735E-1,4.0604913E-1,4.4417784E-1,3.6911666E-1,4.1101873E-1,2.8834477E-1,1.3027153E0,9.1162586E-1,8.7828445E-1,1.8536606E0,3.682003E-1,4.653015E-1,3.071785E-1,5.0824493E-1,2.395668E-1,0E0,0E0,0E0,0E0,0E0,0E0,0E0,0E0,0E0,0E0,0E0,0E0,0E0,0E0,0E0,0E0,0E0,0E0,0E0,0E0,0E0,0E0,0E0,0E0,0E0,0E0,0E0,0E0,0E0,0E0,0E0,0E0],"parents":[2147483647,0,0,1,1,2,2,3,3,4,4,5,5,6,6,7,7,8,8,9,9,10,10,11,11,12,12,13,13,14,14,15,15,16,16,17,17,18,18,19,19,20,20,21,21,22,22,23,23,24,24,25,25,26,26,27,27,28,28,29,29,30,30],"right_children":[2,4,6,8,10,12,14,16,18,20,22,24,26,28,30,32,34,36,38,40,42,44,46,48,50,52,54,56,58,60,62,-1,-1,-1,-1,-1,-1,-1,-1,-1,-1,-1,-1,-1,-1,-1,-1,-1,-1,-1,-1,-1,-1,-1,-1,-1,-1,-1,-1,-1,-1,-1,-1],"split_conditions":[-3.2479366E1,-1.4944827E2,1.25E0,-1.8910641E2,-2.16E2,-1.25E0,1E-1,-1.5E0,-1.38E2,-8.74E2,-1.004E3,-7.5E1,1.01411354E2,9.712347E1,-2.21E2,-2.8E2,3E0,-1.5E0,-4.2E1,-2.43E2,-3.19E2,8.9E1,-8.301505E1,4E0,-5.53E2,-1.59E2,-2.7E1,2.94E2,2E0,1.65E0,-1.8019827E1,4.4530816E-2,-1.0010462E-2,2.224198E-2,-1.3706947E-2,-1.8661661E-2,1.2945563E-2,-9.913648E-3,1.4339578E-2,1.17239775E-2,3.820285E-2,3.2967478E-3,-6.445318E-3,7.757168E-5,1.7213175E-2,-6.332522E-3,-1.2960287E-2,-2.4080833E-3,-3.3858445E-2,-1.2793906E-2,-2.9915858E-2,-8.407086E-4,-1.752578E-2,-1.5516922E-2,-3.088213E-2,-3.0578753E-2,-1.2115214E-2,-1.4254528E-2,-3.879748E-2,-2.2772621E-2,1.4052004E-2,-7.9843905E-3,-2.5224108E-2],"split_indices":[0,0,3,0,2,4,4,3,1,1,1,2,0,0,1,1,7,3,2,2,2,2,0,1,1,2,2,2,6,3,0,0,0,0,0,0,0,0,0,0,0,0,0,0,0,0,0,0,0,0,0,0,0,0,0,0,0,0,0,0,0,0,0],"split_type":[0,0,0,0,0,0,0,0,0,0,0,0,0,0,0,0,0,0,0,0,0,0,0,0,0,0,0,0,0,0,0,0,0,0,0,0,0,0,0,0,0,0,0,0,0,0,0,0,0,0,0,0,0,0,0,0,0,0,0,0,0,0,0],"sum_hessian":[5.192542E3,1.926184E3,3.266358E3,2.4453514E2,1.6816488E3,2.504931E3,7.614272E2,1.0264915E2,1.41886E2,2.1886655E2,1.4627822E3,5.5632214E2,1.9486088E3,6.68497E2,9.293016E1,9.390921E0,9.325823E1,1.0604054E2,3.584545E1,4.0378845E1,1.784877E2,9.6892494E1,1.3658898E3,4.4467262E1,5.1185486E2,1.7737932E3,1.748155E2,4.8754184E2,1.8095517E2,1.3048291E1,7.9881874E1,8.375598E0,1.015323E0,8.9541855E1,3.716372E0,3.3794763E0,1.0266107E2,2.6384922E1,9.460529E0,3.46886E1,5.690244E0,1.0732318E2,7.116452E1,8.6818726E1,1.007377E1,4.4113907E2,9.247507E2,3.2506676E1,1.1960586E1,3.4193142E1,4.776617E2,6.9397545E1,1.7043956E3,2.088133E1,1.5393417E2,4.7167633E2,1.586549E1,6.8119187E0,1.7414325E2,6.3721995E0,6.676091E0,1.0429403E1,6.945247E1],"tree_param":{"num_deleted":"0","num_feature":"11","num_nodes":"63","size_leaf_vector":"1"}},{"base_weights":[-5.7116028E-2,2.568398E-1,-5.3921586E-1,-5.196781E-1,5.8551544E-1,3.1870425E-1,-5.4931456E-1,-5.5566497E-2,3.2305115E-1,6.170322E-1,-5.385108E-2,6.0475927E-2,-4.8186414E-2,-1.22361585E-1,-5.5027682E-2,-5.0997563E-2,6.1908662E-2,-5.2690145E-2,6.257551E-2,4.191674E-2,-4.3257274E-2],"categories":[],"categories_nodes":[],"categories_segments":[],"categories_sizes":[],"default_left":[0,0,0,0,0,0,0,0,0,0,0,0,0,0,0,0,0,0,0,0,0],"id":49,"left_children":[1,3,5,7,9,11,13,-1,15,17,-1,-1,-1,19,-1,-1,-1,-1,-1,-1,-1],"loss_changes":[8.6132544E2,8.7991345E2,1.9619202E1,3.1279175E1,8.61319E1,6.415797E0,8.441162E-1,0E0,1.0828381E1,2.3842651E1,0E0,0E0,0E0,1.2354175E0,0E0,0E0,0E0,0E0,0E0,0E0,0E0],"parents":[2147483647,0,0,1,1,2,2,3,3,4,4,5,5,6,6,8,8,9,9,13,13],"right_children":[2,4,6,8,10,12,14,-1,16,18,-1,-1,-1,20,-1,-1,-1,-1,-1,-1,-1],"split_conditions":[1.0769333E1,-8.69299E0,-2.1492542E2,1.5827814E2,1.6545262E2,1.4665834E1,-2.0123996E2,-5.5566497E-2,-2.765526E1,-2.1492542E2,-5.385108E-2,6.0475927E-2,-4.8186414E-2,1.1215495E1,-5.5027682E-2,-5.0997563E-2,6.1908662E-2,-5.2690145E-2,6.257551E-2,4.191674E-2,-4.3257274E-2],"split_indices":[8,8,0,0,0,8,0,0,8,0,0,0,0,8,0,0,0,0,0,0,0],"split_type":[0,0,0,0,0,0,0,0,0,0,0,0,0,0,0,0,0,0,0,0,0],"sum_hessian":[5.688732E3,3.44544E3,2.243292E3,1.024473E3,2.4209668E3,2.5743273E1,2.2175488E3,9.828436E2,4.162947E1,2.3553752E3,6.559166E1,1.9146523E1,6.5967503E0,5.274823E0,2.212274E3,1.0725592E1,3.090388E1,1.737511E1,2.3380002E3,1.7932144E0,3.4816086E0],"tree_param":{"num_deleted":"0","num_feature":"11","num_nodes":"21","size_leaf_vector":"1"}},{"base_weights":[1.8450761E-1,-5.395941E-1,5.938475E-1,-5.522727E-1,4.6526295E-1,1.839214E-1,6.0636885E-2,-5.534735E-2,-1.01628855E-1,-4.195964E-2,5.7958838E-2,-5.425417E-2,6.0769316E-2,-4.4733133E-2,4.2684603E-2],"categories":[],"categories_nodes":[],"categories_segments":[],"categories_sizes":[],"default_left":[0,0,0,0,0,0,0,0,0,0,0,0,0,0,0],"id":50,"left_children":[1,3,5,7,9,11,-1,-1,13,-1,-1,-1,-1,-1,-1],"loss_changes":[1.8585878E3,2.9109436E1,2.0448975E1,1.1542969E0,3.1527119E0,3.7322563E1,0E0,0E0,1.5008196E0,0E0,0E0,0E0,0E0,0E0,0E0],"parents":[2147483647,0,0,1,1,2,2,3,3,4,4,5,5,8,8],"right_children":[2,4,6,8,10,12,-1,-1,14,-1,-1,-1,-1,-1,-1],"split_conditions":[8.366779E0,2.3434172E2,-1.5453378E2,2.0906366E2,-1.1617466E1,1.4665834E1,6.0636885E-2,-5.534735E-2,-1.0227523E1,-4.195964E-2,5.7958838E-2,-5.425417E-2,6.0769316E-2,-4.4733133E-2,4.2684603E-2],"split_indices":[8,0,0,0,8,8,0,0,8,0,0,0,0,0,0],"split_type":[0,0,0,0,0,0,0,0,0,0,0,0,0,0,0],"sum_hessian":[6.2683794E3,2.2636963E3,4.0046833E3,2.2359353E3,2.7761005E1,1.19163475E2,3.8855198E3,2.2297654E3,6.169749E0,2.870858E0,2.4890148E1,4.379918E1,7.5364296E1,3.8226807E0,2.3470683E0],"tree_param":{"num_deleted":"0","num_feature":"11","num_nodes":"15","size_leaf_vector":"1"}},{"base_weights":[-1.5429814E-1,-5.0587565E-2,-2.1567555E-1,9.385733E-2,-8.438212E-2,-1.93196E-1,-2.903796E-1,1.9086133E-1,5.478359E-2,-4.38741E-2,-1.263013E-1,-2.6125678E-1,-1.7367053E-1,-1.6781567E-1,-3.0284625E-1,2.7491835E-1,1.4845572E-1,1.3866326E-1,2.2420809E-2,4.9273685E-2,-5.9320115E-2,-1.4719154E-1,-2.6456438E-2,-1.7121093E-1,-2.918425E-1,-1.2714456E-1,-1.9572651E-1,-1.9826515E-1,-1.770231E-4,-2.7579394E-1,-3.467628E-1,2.982947E-2,-1.0070383E-2,-1.5884912E-2,1.7260972E-2,-1.7081192E-2,1.6040092E-2,1.4419935E-2,5.228519E-4,3.826374E-3,3.2010823E-2,1.45224E-3,-7.202835E-3,-1.3650738E-2,-2.650855E-2,-4.24041E-3,1.9274613E-2,-8.411728E-3,-2.0419968E-2,-2.541672E-2,-3.415753E-2,-1.1865597E-2,-2.4761397E-2,-2.3575762E-2,-1.6321547E-2,-4.691807E-3,-2.3196181E-2,-2.2717094E-2,1.0540959E-2,-2.8142262E-2,-1.8247667E-3,-3.9992023E-2,-3.0005515E-2],"categories":[],"categories_nodes":[],"categories_segments":[],"categories_sizes":[],"default_left":[0,0,0,0,0,0,0,0,0,0,0,0,0,0,0,0,0,0,0,0,0,0,0,0,0,0,0,0,0,0,0,0,0,0,0,0,0,0,0,0,0,0,0,0,0,0,0,0,0,0,0,0,0,0,0,0,0,0,0,0,0,0,0],"id":51,"left_children":[1,3,5,7,9,11,13,15,17,19,21,23,25,27,29,31,33,35,37,39,41,43,45,47,49,51,53,55,57,59,61,-1,-1,-1,-1,-1,-1,-1,-1,-1,-1,-1,-1,-1,-1,-1,-1,-1,-1,-1,-1,-1,-1,-1,-1,-1,-1,-1,-1,-1,-1,-1,-1],"loss_changes":[3.1464272E1,8.988143E0,5.159836E0,1.3134122E0,2.5269241E0,3.131462E0,1.0439034E0,3.15243E-1,6.765874E-1,1.0963699E0,1.5237226E0,1.4122925E0,1.8844223E0,3.490615E-1,6.754875E-1,3.1384206E-1,5.363784E-1,4.950565E-1,3.8001955E-1,3.117168E-1,6.1321354E-1,7.264385E-1,4.554284E-1,3.7654352E-1,6.531067E-1,5.8544064E-1,1.601841E0,2.8427935E-1,2.9989746E-1,5.8420753E-1,4.8465538E-1,0E0,0E0,0E0,0E0,0E0,0E0,0E0,0E0,0E0,0E0,0E0,0E0,0E0,0E0,0E0,0E0,0E0,0E0,0E0,0E0,0E0,0E0,0E0,0E0,0E0,0E0,0E0,0E0,0E0,0E0,0E0,0E0],"parents":[2147483647,0,0,1,1,2,2,3,3,4,4,5,5,6,6,7,7,8,8,9,9,10,10,11,11,12,12,13,13,14,14,15,15,16,16,17,17,18,18,19,19,20,20,21,21,22,22,23,23,24,24,25,25,26,26,27,27,28,28,29,29,30,30],"right_children":[2,4,6,8,10,12,14,16,18,20,22,24,26,28,30,32,34,36,38,40,42,44,46,48,50,52,54,56,58,60,62,-1,-1,-1,-1,-1,-1,-1,-1,-1,-1,-1,-1,-1,-1,-1,-1,-1,-1,-1,-1,-1,-1,-1,-1,-1,-1,-1,-1,-1,-1,-1,-1],"split_conditions":[-3.2479366E1,-1.3010393E2,1.25E0,-1.8910641E2,-8.5E1,-1.25E0,-2.21E2,-7.97E2,-6.39E2,-2.96E2,3.88E2,-8.5E1,-4.7E1,9.4E1,7.372732E1,-4.4E1,-7E2,-1.15E0,-9.5E-1,-1.47E2,-1.004E3,1.5333333E0,4.6666667E-1,-5.53E2,4.7864582E1,8.246811E1,-1E0,-7.9E1,-3E0,9E-1,2.2E2,2.982947E-2,-1.0070383E-2,-1.5884912E-2,1.7260972E-2,-1.7081192E-2,1.6040092E-2,1.4419935E-2,5.228519E-4,3.826374E-3,3.2010823E-2,1.45224E-3,-7.202835E-3,-1.3650738E-2,-2.650855E-2,-4.24041E-3,1.9274613E-2,-8.411728E-3,-2.0419968E-2,-2.541672E-2,-3.415753E-2,-1.1865597E-2,-2.4761397E-2,-2.3575762E-2,-1.6321547E-2,-4.691807E-3,-2.3196181E-2,-2.2717094E-2,1.0540959E-2,-2.8142262E-2,-1.8247667E-3,-3.9992023E-2,-3.0005515E-2],"split_indices":[0,0,3,0,1,4,1,1,1,2,1,1,1,2,0,2,1,3,4,1,1,3,5,1,0,0,7,2,7,4,1,0,0,0,0,0,0,0,0,0,0,0,0,0,0,0,0,0,0,0,0,0,0,0,0,0,0,0,0,0,0,0,0],"split_type":[0,0,0,0,0,0,0,0,0,0,0,0,0,0,0,0,0,0,0,0,0,0,0,0,0,0,0,0,0,0,0,0,0,0,0,0,0,0,0,0,0,0,0,0,0,0,0,0,0,0,0,0,0,0,0,0,0,0,0,0,0,0,0],"sum_hessian":[4.9436616E3,1.8386627E3,3.1049988E3,3.4827713E2,1.4903856E3,2.389538E3,7.154609E2,9.888982E1,2.4938731E2,7.5899146E2,7.313942E2,5.299363E2,1.8596017E3,6.73898E1,6.4807104E2,3.1321268E1,6.756855E1,6.8516846E1,1.8087047E2,1.0764487E2,6.5134656E2,6.044523E2,1.2694192E2,1.360364E2,3.938999E2,6.0022406E2,1.2593776E3,5.6876244E1,1.0513559E1,4.0554056E2,2.425305E2,2.9680035E1,1.6412323E0,4.517468E0,6.305108E1,4.046706E0,6.447014E1,2.1461845E1,1.5940863E2,1.0453654E2,3.1083314E0,9.5616165E1,5.557304E2,5.562041E2,4.8248184E1,1.19084694E2,7.8572235E0,3.8346798E1,9.7689606E1,2.2759499E2,1.6630492E2,5.62569E2,3.765514E1,5.616104E2,6.977672E2,1.079288E1,4.6083366E1,2.972233E0,7.541326E0,3.967763E2,8.764258E0,1.0989648E2,1.3263403E2],"tree_param":{"num_deleted":"0","num_feature":"11","num_nodes":"63","size_leaf_vector":"1"}},{"base_weights":[-5.3857435E-2,2.4391133E-1,-5.330875E-1,-5.2154124E-1,5.7457143E-1,3.0396003E-1,-5.4425174E-1,-5.5354524E-2,2.732687E-1,6.053975E-1,-5.3351022E-2,5.9598174E-2,-4.812636E-2,-1.6814038E-1,-5.4505672E-2,-5.109275E-2,6.0271677E-2,-5.2210357E-2,6.13976E-2,3.7457697E-2,-4.256365E-2],"categories":[],"categories_nodes":[],"categories_segments":[],"categories_sizes":[],"default_left":[0,0,0,0,0,0,0,0,0,0,0,0,0,0,0,0,0,0,0,0,0],"id":52,"left_children":[1,3,5,7,9,11,13,-1,15,17,-1,-1,-1,19,-1,-1,-1,-1,-1,-1,-1],"loss_changes":[7.642886E2,8.3643054E2,1.934613E1,2.5514038E1,7.913934E1,6.628641E0,5.217285E-1,0E0,1.0451877E1,2.2039124E1,0E0,0E0,0E0,9.6615326E-1,0E0,0E0,0E0,0E0,0E0,0E0,0E0],"parents":[2147483647,0,0,1,1,2,2,3,3,4,4,5,5,6,6,8,8,9,9,13,13],"right_children":[2,4,6,8,10,12,14,-1,16,18,-1,-1,-1,20,-1,-1,-1,-1,-1,-1,-1],"split_conditions":[1.0769333E1,-8.69299E0,-2.1492542E2,1.5827814E2,1.6545262E2,1.4665834E1,-2.0123996E2,-5.5354524E-2,-2.765526E1,-2.1492542E2,-5.3351022E-2,5.9598174E-2,-4.812636E-2,1.1215495E1,-5.4505672E-2,-5.109275E-2,6.0271677E-2,-5.2210357E-2,6.13976E-2,3.7457697E-2,-4.256365E-2],"split_indices":[8,8,0,0,0,8,0,0,8,0,0,0,0,8,0,0,0,0,0,0,0],"split_type":[0,0,0,0,0,0,0,0,0,0,0,0,0,0,0,0,0,0,0,0,0],"sum_hessian":[5.3540103E3,3.302499E3,2.051511E3,9.9607806E2,2.306421E3,2.6657017E1,2.0248541E3,9.57814E2,3.8264015E1,2.244436E3,6.198503E1,1.9606455E1,7.0505624E0,4.772691E0,2.0200814E3,1.1156638E1,2.7107376E1,1.6495707E1,2.2279402E3,1.3894649E0,3.383226E0],"tree_param":{"num_deleted":"0","num_feature":"11","num_nodes":"21","size_leaf_vector":"1"}},{"base_weights":[1.803534E-1,-5.353135E-1,5.841815E-1,-5.482451E-1,4.4276994E-1,1.8393421E-1,5.963896E-2,-5.4929048E-2,-1.4291768E-1,-4.2705122E-2,5.69369E-2,-5.359124E-2,5.9823073E-2,-4.428971E-2,3.9543606E-2],"categories":[],"categories_nodes":[],"categories_segments":[],"categories_sizes":[],"default_left":[0,0,0,0,0,0,0,0,0,0,0,0,0,0,0],"id":53,"left_children":[1,3,5,7,9,11,-1,-1,13,-1,-1,-1,-1,-1,-1],"loss_changes":[1.6978778E3,2.7048584E1,1.8240356E1,8.0792236E-1,3.3493838E0,3.3901917E1,0E0,0E0,1.2626114E0,0E0,0E0,0E0,0E0,0E0,0E0],"parents":[2147483647,0,0,1,1,2,2,3,3,4,4,5,5,8,8],"right_children":[2,4,6,8,10,12,-1,-1,14,-1,-1,-1,-1,-1,-1],"split_conditions":[8.366779E0,2.3434172E2,-1.5453378E2,2.0906366E2,-1.1617466E1,1.3670315E1,5.963896E-2,-5.4929048E-2,-1.0227523E1,-4.2705122E-2,5.69369E-2,-5.359124E-2,5.9823073E-2,-4.428971E-2,3.9543606E-2],"split_indices":[8,0,0,0,8,8,0,0,8,0,0,0,0,0,0],"split_type":[0,0,0,0,0,0,0,0,0,0,0,0,0,0,0],"sum_hessian":[5.8727974E3,2.1183384E3,3.754459E3,2.0911301E3,2.7208097E1,1.116021E2,3.642857E3,2.0853965E3,5.733792E0,3.1553624E0,2.4052734E1,4.0660427E1,7.094167E1,3.7959433E0,1.9378488E0],"tree_param":{"num_deleted":"0","num_feature":"11","num_nodes":"15","size_leaf_vector":"1"}},{"base_weights":[-1.4394E-1,5.9240896E-1,-5.380763E-1,6.088992E-2,7.3029436E-2,1.780501E-1,-5.4352105E-2,5.9896644E-2,-5.2864324E-2,5.6699228E-2,-4.971763E-2],"categories":[],"categories_nodes":[],"categories_segments":[],"categories_sizes":[],"default_left":[0,0,0,0,0,0,0,0,0,0,0],"id":54,"left_children":[1,3,5,-1,7,9,-1,-1,-1,-1,-1],"loss_changes":[1.3781157E3,1.4135437E1,1.2155945E1,0E0,1.6798336E1,6.6086426E0,0E0,0E0,0E0,0E0,0E0],"parents":[2147483647,0,0,1,1,2,2,4,4,5,5],"right_children":[2,4,6,-1,8,10,-1,-1,-1,-1,-1],"split_conditions":[-7.940956E0,1.4773038E2,-2.37577E2,6.088992E-2,-2.765526E1,-4.7657533E0,-5.4352105E-2,5.9896644E-2,-5.2864324E-2,5.6699228E-2,-4.971763E-2],"split_indices":[8,0,0,0,8,8,0,0,0,0,0],"split_type":[0,0,0,0,0,0,0,0,0,0,0],"sum_hessian":[4.746392E3,1.6546232E3,3.091769E3,1.6035387E3,5.108443E1,2.3090515E1,3.0686787E3,2.7260153E1,2.3824278E1,1.4752888E1,8.337626E0],"tree_param":{"num_deleted":"0","num_feature":"11","num_nodes":"11","size_leaf_vector":"1"}},{"base_weights":[-5.1886395E-2,2.3193449E-1,-5.286426E-1,-5.194598E-1,5.655813E-1,-2.5523102E-1,-5.3570586E-1,-5.4510796E-1,-1.2862052E-1,5.8742374E-1,1.05089545E-1,4.8279598E-1,-5.2348454E-2,-1.6840567E-1,-5.3654814E-1,-5.5052426E-2,-4.0416405E-1,-4.9056077E-1,4.6210414E-1,3.626097E-1,5.9291786E-1,5.6092834E-1,-4.7814965E-1,5.4266836E-2,-1.7288534E-3,3.6211766E-2,-4.1576944E-2,-4.5117915E-1,-5.3990956E-2,-5.094589E-2,4.827322E-2,3.7621297E-3,-5.061359E-2,5.795608E-2,1.2054439E-3,-2.8143248E-2,5.7502903E-2,5.9409894E-2,1.580817E-2,5.84726E-2,1.9134868E-2,2.394636E-2,-5.1619858E-2,2.065582E-2,-5.2589443E-2],"categories":[],"categories_nodes":[],"categories_segments":[],"categories_sizes":[],"default_left":[0,0,0,0,0,0,0,0,0,0,0,0,0,0,0,0,0,0,0,0,0,0,0,0,0,0,0,0,0,0,0,0,0,0,0,0,0,0,0,0,0,0,0,0,0],"id":55,"left_children":[1,3,5,7,9,11,13,15,17,19,21,23,-1,25,27,-1,29,31,33,35,37,39,41,-1,-1,-1,-1,43,-1,-1,-1,-1,-1,-1,-1,-1,-1,-1,-1,-1,-1,-1,-1,-1,-1],"loss_changes":[6.7549225E2,7.848162E2,3.4606934E0,9.581085E0,2.173993E1,9.918475E0,4.711914E-1,4.670105E-1,1.31831455E1,2.3407593E0,2.6688269E1,4.1464257E-1,0E0,8.867759E-1,2.758789E-1,0E0,3.7184505E0,3.321495E-1,1.237257E0,7.2670093E0,9.425659E-1,3.8274956E-1,1.3286934E0,0E0,0E0,0E0,0E0,3.7780828E0,0E0,0E0,0E0,0E0,0E0,0E0,0E0,0E0,0E0,0E0,0E0,0E0,0E0,0E0,0E0,0E0,0E0],"parents":[2147483647,0,0,1,1,2,2,3,3,4,4,5,5,6,6,7,7,8,8,9,9,10,10,11,11,13,13,14,14,16,16,17,17,18,18,19,19,20,20,21,21,22,22,27,27],"right_children":[2,4,6,8,10,12,14,16,18,20,22,24,-1,26,28,-1,30,32,34,36,38,40,42,-1,-1,-1,-1,44,-1,-1,-1,-1,-1,-1,-1,-1,-1,-1,-1,-1,-1,-1,-1,-1,-1],"split_conditions":[1.0769333E1,-8.69299E0,1.1923869E1,-1.1058051E1,8.366779E0,-1.76E2,-1.672E3,-1.2203722E1,-1.8E1,-7.1877217E0,1E1,4.5E-1,-5.2348454E-2,1.4665834E1,1.3258475E1,-5.5052426E-2,4.78E2,-2E0,-1E0,-1.47E2,3E0,4.6666667E-1,-1.6666667E-1,5.4266836E-2,-1.7288534E-3,3.6211766E-2,-4.1576944E-2,-3.19E2,-5.3990956E-2,-5.094589E-2,4.827322E-2,3.7621297E-3,-5.061359E-2,5.795608E-2,1.2054439E-3,-2.8143248E-2,5.7502903E-2,5.9409894E-2,1.580817E-2,5.84726E-2,1.9134868E-2,2.394636E-2,-5.1619858E-2,2.065582E-2,-5.2589443E-2],"split_indices":[8,8,8,8,8,1,1,8,1,8,1,3,0,8,8,0,1,7,7,1,3,5,5,0,0,0,0,1,0,0,0,0,0,0,0,0,0,0,0,0,0,0,0,0,0],"split_type":[0,0,0,0,0,0,0,0,0,0,0,0,0,0,0,0,0,0,0,0,0,0,0,0,0,0,0,0,0,0,0,0,0,0,0,0,0,0,0,0,0,0,0,0,0],"sum_hessian":[4.990153E3,3.1283235E3,1.8618293E3,9.617787E2,2.1665447E3,4.7822212E1,1.8140072E3,9.021799E2,5.9598824E1,2.06817E3,9.8374695E1,1.2535205E1,3.5287006E1,4.6100426E0,1.8093971E3,8.659951E2,3.6184723E1,3.7060944E1,2.2537882E1,5.0935776E1,2.0172343E3,5.5239635E1,4.3135063E1,1.1118854E1,1.4163518E0,1.3184478E0,3.2915947E0,7.3668915E1,1.7357283E3,3.272508E1,3.4596443E0,1.0210096E0,3.6039932E1,1.7645012E1,4.89287E0,1.2552495E1,3.838328E1,2.0114048E3,5.829461E0,5.1350952E1,3.8886817E0,1.9053867E0,4.1229675E1,7.33474E0,6.6334175E1],"tree_param":{"num_deleted":"0","num_feature":"11","num_nodes":"45","size_leaf_vector":"1"}},{"base_weights":[1.7431258E-1,-5.323678E-1,5.757796E-1,-5.443944E-1,4.3981636E-1,1.884498E-1,5.8750596E-2,-5.455921E-2,-1.2459548E-1,-4.043405E-2,5.5781007E-2,-5.2991044E-2,5.892819E-2,-4.3939456E-2,4.009098E-2],"categories":[],"categories_nodes":[],"categories_segments":[],"categories_sizes":[],"default_left":[0,0,0,0,0,0,0,0,0,0,0,0,0,0,0],"id":56,"left_children":[1,3,5,7,9,11,-1,-1,13,-1,-1,-1,-1,-1,-1],"loss_changes":[1.5545519E3,2.3450806E1,1.5759277E1,9.182129E-1,2.6969166E0,3.0300364E1,0E0,0E0,1.3136541E0,0E0,0E0,0E0,0E0,0E0,0E0],"parents":[2147483647,0,0,1,1,2,2,3,3,4,4,5,5,8,8],"right_children":[2,4,6,8,10,12,-1,-1,14,-1,-1,-1,-1,-1,-1],"split_conditions":[8.366779E0,2.3434172E2,-1.5453378E2,2.0906366E2,-1.1617466E1,1.4665834E1,5.8750596E-2,-5.455921E-2,-1.0227523E1,-4.043405E-2,5.5781007E-2,-5.2991044E-2,5.892819E-2,-4.3939456E-2,4.009098E-2],"split_indices":[8,0,0,0,8,8,0,0,8,0,0,0,0,0,0],"split_type":[0,0,0,0,0,0,0,0,0,0,0,0,0,0,0],"sum_hessian":[5.4773105E3,1.9842383E3,3.493072E3,1.9604266E3,2.3811668E1,1.03146355E2,3.3899258E3,1.9545505E3,5.8760576E0,2.6225417E0,2.1189125E1,3.6825928E1,6.632043E1,3.7772145E0,2.098843E0],"tree_param":{"num_deleted":"0","num_feature":"11","num_nodes":"15","size_leaf_vector":"1"}},{"base_weights":[-1.423675E-1,5.8054525E-1,-5.335919E-1,5.944554E-1,2.7639323E-1,-2.2831848E-1,-5.374569E-1,5.965097E-2,4.5968404E-1,5.5056214E-1,-4.8425382E-1,5.3136673E-2,-4.984644E-1,-4.43158E-1,-5.3896267E-2,5.5636026E-2,-3.834573E-2,5.7423513E-2,-1.8771997E-2,-1.1073572E-2,-5.1363554E-2,-5.2339047E-2,5.979101E-3,4.8593756E-2,-5.3160887E-2],"categories":[],"categories_nodes":[],"categories_segments":[],"categories_sizes":[],"default_left":[0,0,0,0,0,0,0,0,0,0,0,0,0,0,0,0,0,0,0,0,0,0,0,0,0],"id":57,"left_children":[1,3,5,7,9,11,13,-1,15,17,19,-1,21,23,-1,-1,-1,-1,-1,-1,-1,-1,-1,-1,-1],"loss_changes":[1.2338794E3,6.317505E0,3.217041E0,1.3116455E-1,1.4629584E1,7.884497E0,1.5795898E-1,0E0,2.360601E0,1.000762E0,1.492176E-1,0E0,4.1958857E-1,4.329876E0,0E0,0E0,0E0,0E0,0E0,0E0,0E0,0E0,0E0,0E0,0E0],"parents":[2147483647,0,0,1,1,2,2,3,3,4,4,5,5,6,6,8,8,9,9,10,10,12,12,13,13],"right_children":[2,4,6,8,10,12,14,-1,16,18,20,-1,22,24,-1,-1,-1,-1,-1,-1,-1,-1,-1,-1,-1],"split_conditions":[-7.940956E0,-1.0227523E1,-6.618508E0,-1.1058051E1,-2E0,-2.76E2,-5.1352844E0,5.965097E-2,8.3E1,1.7E2,5E-2,5.3136673E-2,4.5E-1,-4.7E2,-5.3896267E-2,5.5636026E-2,-3.834573E-2,5.7423513E-2,-1.8771997E-2,-1.1073572E-2,-5.1363554E-2,-5.2339047E-2,5.979101E-3,4.8593756E-2,-5.3160887E-2],"split_indices":[8,8,8,8,